145 300
</s> -0.53201 -0.079567 0.075111 0.50993 0.23126 0.2063 0.24202 0.07637 0.29148 0.34513 -0.096736 0.20655 0.26848 0.041854 -0.17576 0.071703 0.051754 0.10313 0.12156 -0.15668 0.069755 0.2358 -0.044612 -0.15004 0.086314 -0.050247 0.069542 -0.066136 -0.04872 0.21931 -0.12521 0.0017362 -0.14097 -0.17933 -0.20741 0.024305 0.063777 -0.2234 0.030481 -0.20522 0.19837 0.32534 0.14343 0.12169 -0.048597 -0.066952 0.094709 -0.23626 -0.075858 -0.029894 -0.13859 -0.056552 -0.16102 -0.025753 0.070685 -0.21125 0.14672 0.043506 0.10379 0.19367 -0.30923 0.19591 0.061131 0.048514 -0.30665 -0.017813 -0.26939 0.15088 0.2589 0.18863 -0.23636 -0.047821 -0.090614 -0.017153 0.096482 -0.20662 0.26333 0.22978 0.032551 -0.015619 -0.25525 0.29598 0.2438 -0.33246 -0.053332 -0.31102 -0.024571 0.073605 -0.079728 -0.14744 0.21506 0.085982 0.31203 -0.28142 0.023099 -0.34643 0.24287 0.18592 -0.049154 -0.19678 -0.039322 0.1973 0.26684 -0.25696 0.28405 0.25516 -0.23235 0.058766 -0.080912 -0.037108 0.19132 -0.23335 -0.17633 0.025751 -0.14056 -0.27813 0.15356 0.2457 -0.1457 0.13642 -0.14767 0.17431 -0.017705 0.22288 -0.24057 -0.28538 -0.16639 -0.075615 -0.21176 -0.15111 -0.18476 -0.054838 0.082999 -0.24773 -0.16103 -0.058364 -0.18534 -0.042175 0.18252 0.09145 -0.2923 0.34707 -0.12906 0.057743 0.26698 0.065567 0.31348 -0.075406 -0.11119 0.16471 -0.1447 0.10545 0.22554 0.22837 -0.40632 0.03417 -0.35337 0.17558 0.14838 -0.099401 -0.11875 0.0097393 0.3553 0.48044 0.098939 -0.16884 -0.34796 -0.28584 -0.27749 -0.20622 0.16043 0.3542 0.31141 -0.40501 -0.056776 -0.27795 -0.37016 0.14776 0.096621 0.33418 0.092405 -0.25401 0.19802 0.24691 0.12694 0.10047 0.0029172 -0.28475 -0.22641 0.34679 0.22525 0.1347 0.21464 -0.06891 0.39048 0.11037 0.0047051 -0.035927 -0.20472 -0.426 0.41229 -0.30448 -0.019263 -0.086856 0.11424 -0.37772 -0.41674 -0.4729 0.6336 0.78762 -0.71141 -0.15687 -0.18823 -0.36572 -0.053066 0.094612 0.19012 -0.25174 -0.36585 0.094842 0.3582 -0.43977 -0.48822 0.20078 0.068399 -0.09453 0.34603 -0.47891 -0.38743 0.13274 0.19314 0.37315 -0.15287 0.07719 -0.21486 -0.33052 -0.49704 0.63832 0.22427 0.4393 -0.4203 0.12695 0.26781 -0.027536 0.26844 0.11585 0.43851 0.42525 0.36223 0.44744 -0.12663 0.061211 0.064582 -0.16915 -0.66114 0.39611 0.040815 -0.53001 -0.47788 -0.21118 0.59935 0.43026 0.3171 0.46605 -0.37667 0.2006 -0.2661 -0.19985 0.027514 -0.45498 0.37853 0.20725 0.20527 -0.55077 -0.34494 0.25506 0.44466 -0.16506 0.46851 -0.27782 0.55292 -0.26358 -0.60666 -0.23648 -0.051142 -0.30698 -0.0047054 0.44985 0.30332 -0.22224 -0.438 0.0066018 0.30803 -0.068729 0.047981 -0.047715 -0.17106 0.32174 0.19821 0.32328 
computer -0.080223 -0.18508 0.15324 0.34463 0.069764 0.22151 0.12078 -0.2408 -0.082671 0.059855 -0.037058 0.17491 0.17747 0.002536 -0.040655 -0.0079406 0.080384 0.047091 0.15593 0.0029606 0.12202 0.19443 -0.073242 -0.11123 0.059731 0.031226 0.046844 -0.043715 -0.041021 0.10812 -0.030973 0.042303 0.015618 -0.072504 0.03052 0.10132 -0.0066262 -0.057498 0.060029 -0.046752 0.07623 0.34478 0.15666 0.16491 -0.068925 -0.1107 0.13132 -0.21186 -0.036142 -0.07451 -0.17827 -0.14636 -0.10312 -0.14231 0.12751 -0.069397 0.22379 0.10253 0.13028 0.096302 -0.27499 0.14951 -0.12295 -0.019637 -0.17676 0.06972 0.017287 0.014867 0.11537 0.10983 -0.033701 0.16993 -0.077575 -0.18284 0.1268 -0.29232 0.10353 0.13483 0.20731 -0.064415 -0.16067 0.35363 0.013299 -0.054027 0.033348 -0.28673 -0.17906 0.096646 -0.11247 -0.16642 -0.042545 0.039721 0.28255 -0.12438 -0.096001 -0.19959 0.095801 -0.087212 0.17443 -0.1803 -0.14144 0.18082 -0.026611 -0.094818 0.24908 0.16897 -0.10473 -0.04056 -0.051855 0.020043 0.20485 -0.2398 -0.041923 0.11237 0.053944 -0.28112 0.036569 0.1627 0.054788 0.24035 -0.10428 0.0036228 -0.024772 0.061801 -0.11912 -0.22824 0.10555 -0.17296 -0.26742 0.15967 -0.071175 -0.027434 -0.058291 -0.20185 -0.14942 -0.034325 -0.12307 -0.21984 0.34747 0.19139 -0.18516 0.14097 0.20923 -0.086298 0.13627 -0.12222 0.23765 0.092489 -0.074095 0.0091845 -0.062419 0.18033 0.22735 0.02459 -0.089616 -0.016222 -0.12229 0.079488 0.15822 -0.014131 -0.11811 -0.059903 0.10837 0.21006 -0.053013 0.017147 -0.093186 -0.25711 -0.40889 -0.18856 0.081012 0.37714 0.30869 -0.1274 0.13388 -0.21527 -0.20957 -0.011111 0.1558 -0.0035169 -0.073896 -0.012067 0.16354 0.30482 0.19414 0.037754 -0.0077769 -0.11356 -0.05447 0.23013 0.38063 0.16716 0.1207 0.045622 0.14995 0.1597 0.12815 -0.24561 -0.12794 -0.16198 0.37389 -0.1392 -0.055725 0.0011408 0.26905 -0.13212 -0.22504 -0.19876 -0.092272 0.15397 -0.30952 -0.15057 -0.28013 -0.231 -0.34942 0.14999 -0.048357 -0.0057064 0.12076 -0.019441 0.24511 -0.029375 -0.13767 -0.11262 -0.11991 0.16183 0.28968 -0.32469 -0.10227 0.032621 0.088952 0.31232 0.066874 0.044023 0.012713 0.027508 -0.25498 0.052789 0.1257 -0.014308 -0.034894 0.23239 -0.10357 0.019003 0.10401 -0.14448 0.19257 -0.073723 -0.18212 0.066138 -0.089989 0.19932 -0.19308 0.025212 0.27729 0.18843 -0.14446 -0.1 -0.099846 0.072869 0.19861 0.13327 0.38459 0.20849 -0.0013762 -0.023753 -0.18686 -0.11844 0.091894 0.10426 0.15805 -0.047987 0.13401 -0.39424 -0.26397 -0.10578 0.11775 -0.046579 0.34817 -0.0034965 0.15372 -0.30205 -0.13881 0.22522 0.11721 -0.22971 -0.054826 0.16971 0.32723 -0.10217 -0.17827 -0.24369 -0.17818 -0.02763 0.020006 -0.28523 -0.24337 0.13815 0.056631 0.18759 
software -0.34775 0.057405 -0.049222 0.19878 0.18615 0.14567 0.2191 0.20732 0.29189 0.22386 -0.14475 0.24764 0.21122 0.078568 -0.31921 0.19018 0.23138 0.057873 0.11469 -0.41661 -0.14597 0.26701 0.783 -0.45298 0.20062 -0.29522 0.17766 -0.037118 -0.026428 0.38073 -0.32458 -0.12716 -0.28109 -0.2385 -0.45445 -0.13615 0.16249 -0.4032 0.022242 -0.46989 0.57251 0.028495 0.039651 -0.15889 0.085588 0.18585 -0.20442 -0.19227 -0.16265 0.13341 0.021738 0.30578 -0.12777 0.22743 -0.10271 -0.35812 -0.13738 -0.14272 -0.055604 0.27752 -0.27153 0.23568 0.43558 0.13552 -0.25205 -0.12339 -0.40228 0.16095 0.28216 0.17075 -0.34554 -0.36953 0.011944 0.19998 0.01722 0.041529 0.28336 0.17666 -0.226 0.076781 -0.18701 0.069511 0.34051 -0.50335 -0.06743 -0.13288 0.18719 0.01185 0.09072 0.0078856 0.47414 0.072538 0.048484 -0.31421 0.21994 -0.29627 0.22116 0.22996 -0.18447 -0.11421 0.037535 0.018255 0.39543 -0.21602 0.095008 0.12734 -0.19478 0.14278 -0.049502 -0.076186 0.039427 -0.020577 -0.21384 -0.14793 -0.28756 -0.049769 0.35523 0.3208 -0.30047 -0.098432 -0.11007 0.27535 -0.13059 0.37521 -0.2582 -0.18082 -0.55605 0.18721 0.054688 -0.61555 -0.26215 -0.039961 0.44011 -0.18489 0.033055 -0.058697 -0.13415 0.39289 -0.32998 -0.18195 -0.13578 0.35442 -0.51938 0.15648 0.1506 0.25118 0.093077 -0.20253 -0.055595 0.26327 -0.15053 -0.07646 0.011136 0.27619 -0.42292 0.061975 -0.24237 0.098018 0.015879 -0.086635 -0.00038096 0.078642 0.29756 0.3204 0.16962 -0.21931 -0.30524 -0.048519 0.14424 -0.015182 0.074456 -0.026761 -0.032365 -0.21625 -0.17983 -0.029014 -0.11282 0.11574 -0.039333 0.24316 0.179 -0.27618 0.036463 -0.059858 -0.073559 0.07025 0.015142 -0.18209 -0.18308 0.16593 -0.099351 0.011115 0.09115 -0.11033 0.21269 -0.014035 -0.019866 0.098616 -0.015042 -0.37521 0.10588 -0.27614 0.05698 -0.12514 -0.035919 -0.091651 -0.063784 -0.10957 0.34144 0.31337 -0.20381 -0.010984 0.031001 -0.084435 0.16345 -0.038893 0.18672 -0.19651 -0.34481 0.073418 0.059965 -0.19885 -0.17643 0.14655 0.11548 -0.13464 0.048022 -0.08065 -0.21937 0.070916 0.11446 0.056038 -0.22102 0.031731 -0.17864 -0.39815 -0.12435 0.27197 0.0302 0.1977 -0.19293 -0.0665 0.1873 -0.031902 0.10541 0.13418 0.13656 0.27858 0.38967 0.27321 -0.014244 -0.054166 0.14129 -0.10416 -0.54552 0.12221 0.070161 -0.21734 -0.19599 -0.14154 0.26422 0.18673 -0.048791 0.18 -0.20824 0.12181 -0.03135 -0.047786 -0.04891 -0.31279 0.12386 0.13986 0.040118 -0.087637 -0.036301 0.21705 0.20632 -0.074639 0.069625 -0.16891 0.24081 0.015041 -0.29197 -0.27637 -0.13004 -0.070017 0.043896 0.23058 -0.01626 -0.099167 -0.23316 0.2056 0.48004 -0.0351 0.019895 0.23252 0.063946 0.18421 0.13352 0.12732 
and -0.042951 -0.12135 0.098052 0.21801 0.044797 0.15147 0.081183 -0.17656 -0.059346 0.043542 -0.022893 0.11142 0.13931 0.015196 -0.016748 -0.024688 0.034335 0.040591 0.10152 0.0048523 0.089128 0.14034 -0.091658 -0.070005 0.038573 0.021559 0.031897 -0.039794 -0.036649 0.078402 -0.015189 0.030059 0.011244 -0.04416 0.031097 0.081068 -0.0099913 -0.031506 0.029647 -0.0085163 0.039412 0.26949 0.11667 0.13713 -0.065323 -0.094996 0.094662 -0.14653 -0.039185 -0.057231 -0.15166 -0.097722 -0.097558 -0.10831 0.10341 -0.034661 0.16952 0.097647 0.12127 0.055054 -0.18897 0.098929 -0.10054 -0.0076829 -0.10432 0.065382 0.031249 0.027602 0.074432 0.080184 -0.022199 0.15882 -0.075946 -0.14141 0.08543 -0.21487 0.077378 0.1079 0.16763 -0.065285 -0.12504 0.26003 0.018391 -0.025907 0.011027 -0.21699 -0.14079 0.071017 -0.099252 -0.13048 -0.03987 0.037893 0.23522 -0.091438 -0.087267 -0.15034 0.058024 -0.052283 0.12204 -0.12348 -0.08734 0.14403 -0.031673 -0.070327 0.19084 0.1345 -0.08002 -0.035991 -0.037509 0.0066523 0.13663 -0.18879 -0.029485 0.099669 0.043597 -0.21046 0.0046337 0.10029 0.037245 0.17966 -0.078522 0.014147 0.013196 0.034954 -0.092407 -0.17003 0.092292 -0.13927 -0.20031 0.14442 -0.033838 -0.028641 -0.063781 -0.14802 -0.13633 -0.03257 -0.10515 -0.17435 0.26627 0.13539 -0.14944 0.095133 0.17301 -0.060034 0.11371 -0.098322 0.18589 0.074118 -0.058384 -0.010383 -0.038822 0.12307 0.17007 0.014522 -0.056945 -0.0069075 -0.092007 0.054383 0.14701 -0.0098362 -0.074852 -0.034163 0.062594 0.13566 -0.043049 0.027475 -0.047354 -0.18679 -0.32324 -0.14166 0.046542 0.28786 0.23346 -0.086679 0.10259 -0.15534 -0.13895 -0.0104 0.14137 -0.021553 -0.070301 -0.0036819 0.11086 0.2297 0.16357 0.037827 -0.016203 -0.093087 -0.036757 0.16313 0.29039 0.12202 0.086025 0.041791 0.099076 0.11201 0.082977 -0.17363 -0.11133 -0.096519 0.28383 -0.095702 -0.047616 0.006619 0.19049 -0.10266 -0.1737 -0.15078 -0.080535 0.091174 -0.22453 -0.10336 -0.20317 -0.16658 -0.27465 0.12125 -0.047992 0.0080881 0.10152 -0.011843 0.18447 -0.01598 -0.094196 -0.087604 -0.11123 0.12836 0.20837 -0.24921 -0.073548 0.028015 0.053055 0.24389 0.055015 0.031092 -0.0016072 0.035029 -0.17407 0.028946 0.10985 -0.0033219 -0.027216 0.1882 -0.078421 0.024835 0.071903 -0.1105 0.14581 -0.062225 -0.15739 0.044887 -0.075432 0.14474 -0.14019 0.011398 0.23828 0.13775 -0.099323 -0.069999 -0.064721 0.058398 0.14297 0.099911 0.3061 0.1529 0.0078672 -0.017136 -0.14381 -0.07839 0.085118 0.08265 0.11091 -0.041743 0.1139 -0.28655 -0.21476 -0.086148 0.088691 -0.034416 0.26876 -0.01308 0.11627 -0.2138 -0.083476 0.17104 0.093812 -0.17125 -0.039724 0.12919 0.2501 -0.078994 -0.11641 -0.19056 -0.13917 -0.01889 0.021678 -0.22672 -0.18547 0.094311 0.046693 0.14542 
programming -0.30768 0.024053 -0.030021 0.21354 0.14715 0.13812 0.16018 0.066018 0.18982 0.19235 -0.08923 0.17826 0.19951 0.06309 -0.20051 0.10461 0.1438 0.061406 0.10946 -0.26179 -0.03794 0.21418 0.37662 -0.2773 0.13228 -0.16375 0.11719 -0.037403 -0.03271 0.28553 -0.21992 -0.065344 -0.20245 -0.20066 -0.3313 -0.065426 0.11423 -0.30801 0.022896 -0.33551 0.39423 0.14082 0.082668 -0.041375 0.026923 0.069264 -0.073097 -0.19133 -0.11292 0.056831 -0.045783 0.12979 -0.12885 0.10352 -0.024913 -0.27253 -0.012329 -0.064073 0.0061303 0.23126 -0.28078 0.21395 0.25651 0.09091 -0.26013 -0.067346 -0.30551 0.13251 0.24864 0.16179 -0.26498 -0.20052 -0.027696 0.079157 0.051819 -0.075617 0.24257 0.18224 -0.084621 0.027809 -0.19292 0.16402 0.25269 -0.36011 -0.047069 -0.19286 0.065618 0.036637 0.0079363 -0.058744 0.2991 0.065079 0.14844 -0.25942 0.10699 -0.27368 0.20246 0.15212 -0.083939 -0.14664 -0.013646 0.08473 0.27811 -0.1913 0.16131 0.16215 -0.18133 0.086057 -0.051487 -0.045045 0.10045 -0.10526 -0.16888 -0.053704 -0.18198 -0.13755 0.22903 0.25341 -0.19298 0.014911 -0.11063 0.18617 -0.070401 0.25645 -0.20878 -0.19689 -0.31177 0.053036 -0.061588 -0.33474 -0.19056 -0.039419 0.24313 -0.19233 -0.042 -0.049177 -0.14074 0.16273 -0.076578 -0.047189 -0.16928 0.29875 -0.27733 0.082133 0.17262 0.1318 0.16243 -0.11553 -0.0654 0.17478 -0.1204 0.016753 0.0938 0.19858 -0.33075 0.034077 -0.2351 0.10995 0.06122 -0.071872 -0.052757 0.034153 0.27532 0.33887 0.12323 -0.18235 -0.30199 -0.14423 -0.042638 -0.092344 0.097148 0.13495 0.11258 -0.25106 -0.1006 -0.12522 -0.18967 0.10083 0.02349 0.2287 0.11158 -0.21364 0.093062 0.079219 0.020769 0.072008 0.0099111 -0.196 -0.16675 0.21683 0.057586 0.069053 0.12612 -0.072229 0.24044 0.04618 0.0096228 0.0060579 -0.075289 -0.32891 0.21544 -0.24335 0.015586 -0.082475 0.058241 -0.15561 -0.16322 -0.19525 0.30942 0.37669 -0.32942 -0.070437 -0.080598 -0.16784 0.0062253 0.027729 0.14032 -0.16459 -0.25463 0.061143 0.1551 -0.2057 -0.22745 0.099755 0.061174 -0.066927 0.16175 -0.21523 -0.22944 0.076507 0.12554 0.1728 -0.14275 0.039426 -0.13574 -0.28543 -0.22689 0.30238 0.087754 0.19696 -0.21599 0.035144 0.14958 -0.024397 0.14235 0.078317 0.22116 0.24678 0.28437 0.27577 -0.055154 0.025567 0.057549 -0.094179 -0.41944 0.19516 0.019053 -0.26172 -0.23786 -0.11351 0.31691 0.22371 0.11036 0.24691 -0.19648 0.10281 -0.10949 -0.094426 -0.0076576 -0.25721 0.1836 0.11579 0.093134 -0.25495 -0.1506 0.16423 0.23764 -0.083777 0.20892 -0.14922 0.28423 -0.11417 -0.32286 -0.15522 -0.060679 -0.15155 0.014327 0.25443 0.12187 -0.12415 -0.25031 0.062311 0.25606 -0.034712 0.020959 0.04235 -0.052982 0.17766 0.11384 0.16354 
engineering 0.67476 0.031698 -0.047786 -0.52938 -0.31402 -0.174 -0.35084 -0.47528 -0.49987 -0.35819 0.22029 -0.34551 -0.29207 -0.03294 0.51536 -0.33581 -0.34514 -0.066806 -0.1714 0.54998 0.17277 -0.33294 -0.95295 0.55822 -0.25911 0.36496 -0.22786 0.043443 0.017284 -0.56244 0.49242 0.18298 0.4657 0.4246 0.77019 0.23302 -0.25772 0.64798 -0.041701 0.75704 -0.80276 -0.059628 -0.061143 0.20954 -0.12622 -0.25276 0.22823 0.30382 0.19944 -0.17268 -0.061428 -0.35888 0.17716 -0.337 0.15377 0.57438 0.17784 0.21911 0.089197 -0.45064 0.41165 -0.35139 -0.62838 -0.19948 0.46619 0.21709 0.70251 -0.27148 -0.47854 -0.28608 0.57293 0.61467 -0.0096409 -0.33682 -0.031431 -0.052887 -0.47763 -0.30436 0.36738 -0.12789 0.31422 -0.10326 -0.56372 0.80367 0.1317 0.22424 -0.29198 -0.017142 -0.11371 0.0084856 -0.74113 -0.12436 -0.12371 0.52084 -0.34237 0.49873 -0.41006 -0.44258 0.33992 0.20933 -0.071792 -0.069205 -0.69851 0.40139 -0.19817 -0.24838 0.34759 -0.23767 0.094762 0.12486 -0.093196 0.074805 0.37385 0.22377 0.48124 0.13088 -0.52807 -0.48922 0.50363 0.14053 0.18444 -0.44655 0.15288 -0.56787 0.42406 0.31662 0.8531 -0.25823 -0.044709 0.99905 0.45108 0.077039 -0.65358 0.31804 -0.013848 0.096581 0.24208 -0.57571 0.45263 0.25119 0.28891 -0.64913 0.87619 -0.27325 -0.3195 -0.44354 -0.23185 0.37027 0.1174 -0.47521 0.28173 0.090425 -0.084081 -0.50852 0.80809 -0.095426 0.52246 -0.23943 -0.010702 0.1865 0.055457 -0.12408 -0.63504 -0.72059 -0.33646 0.45919 0.68051 0.17406 -0.1977 0.087829 -0.21331 -0.057422 -0.053496 0.57383 0.36363 0.16473 0.36649 -0.2869 0.082884 -0.62236 -0.34984 0.54434 -0.13144 0.036049 0.10117 -0.14427 -0.031604 0.40344 0.39658 -0.37887 0.15267 -0.036165 -0.22985 0.22416 -0.515 0.0095762 0.08123 -0.21424 0.11188 0.73195 -0.26703 0.5124 -0.084113 0.22385 0.085839 0.34121 0.29334 0.40899 -0.92993 -0.91341 0.64561 0.072917 -0.016459 0.27783 -0.32279 0.049674 -0.4135 0.44761 0.77675 -0.17214 -0.23782 0.57917 0.53801 -0.39804 -0.26999 0.32925 -0.2002 0.32607 0.54083 -0.17285 -0.26455 -0.20996 0.4225 -0.076908 0.38665 0.76083 0.44081 -0.83836 -0.15559 -0.6142 0.57887 0.098345 -0.51356 0.074791 -0.29832 -0.33161 -0.43344 -0.72835 -0.86631 -0.67041 0.076436 0.1154 -0.31222 0.2726 1.3349 -0.38019 -0.18461 0.64388 0.57805 0.37987 -0.71231 -0.51038 -0.013555 -0.49599 0.57462 -0.33035 0.16582 0.17273 0.08281 0.8351 -0.39641 -0.37541 -0.1595 0.38557 0.20987 -0.53477 -0.57271 0.21115 -0.30908 0.44006 -0.67604 0.052772 0.77925 0.628 0.25024 0.22608 -0.072001 -0.55964 -0.08174 0.25016 0.55968 -0.35765 -0.876 0.081287 -0.053078 -0.35644 -0.042299 -0.40375 -0.28266 -0.32007 
assistant 0.13838 0.25446 -0.17269 -0.56823 -0.10764 -0.50299 -0.2319 0.68939 0.36741 -0.0014516 0.029971 -0.33386 -0.23457 0.18951 0.025047 -0.0066142 -0.28606 -0.0097498 -0.38505 -0.21999 -0.31291 -0.23174 0.19027 0.10981 -0.06034 -0.24807 -0.015307 -0.015531 -0.074667 0.0089988 -0.030204 -0.13383 -0.25299 0.17281 -0.253 -0.17654 0.087662 -0.071295 -0.32515 0.14774 -0.027594 -0.47489 -0.26594 -0.24387 -0.0016062 0.12449 -0.41213 0.42958 -0.18856 0.22732 0.038517 0.63823 -0.19665 0.36468 -0.21752 0.070484 -0.45829 0.01301 0.071238 -0.25024 0.54864 -0.29975 0.39625 0.16793 0.52982 0.032518 -0.01787 0.26382 -0.1815 -0.15006 -0.11232 -0.017697 -0.15346 0.36224 -0.35911 0.59843 0.056334 0.038562 -0.31964 -0.13412 0.042119 -0.59055 0.34916 0.075042 -0.23515 0.34214 0.35271 -0.16641 -0.050814 0.12856 0.22742 0.047835 -0.094507 0.077037 0.066368 0.1403 -0.18371 0.54282 -0.54557 0.47415 0.50922 -0.12981 0.14345 -0.015589 -0.27198 -0.0046729 0.03706 0.032482 0.10219 -0.18412 -0.62791 0.19762 -0.074824 -0.0016855 -0.17338 0.42007 -0.21258 -0.38944 -0.44439 -0.44539 0.10862 0.37569 0.46159 -0.044124 -0.009101 0.31592 -0.29789 0.27674 0.50192 -0.21123 0.24193 -0.13017 -0.0061125 0.24108 -0.21618 -0.033607 -0.19548 0.49012 -0.61206 -0.50185 -0.0053784 -0.1332 -0.32871 0.39227 0.11038 0.16276 -0.12307 -0.20516 0.045473 -0.15098 0.14734 -0.49004 -0.34876 0.10146 0.030067 0.24319 -0.050586 -0.15404 0.17515 0.0034632 0.40242 0.32208 -0.29804 -0.47805 0.24067 0.0024429 0.19715 0.38949 0.44353 0.20293 -0.37765 -0.52724 -0.49995 0.20247 -0.31639 0.36739 0.48526 -0.0085267 0.18856 -0.08283 -0.043612 -0.13184 -0.38575 -0.41411 -0.060039 0.20413 -0.13253 -0.11481 0.016037 -0.30532 -0.50928 -0.31569 -0.16161 0.028391 -0.19406 -0.28839 -0.50589 0.61448 -0.14294 0.36064 -0.3794 0.14214 0.073552 -0.057815 -0.58118 -0.0043228 0.0354 0.09853 0.2713 -0.25817 0.39729 0.3836 0.47196 0.35412 0.30649 -0.039819 -0.018262 0.062044 -0.24239 0.098583 -0.32739 -0.080808 0.20218 0.19906 -0.06923 -0.22816 -0.49141 0.19125 0.00030123 0.028739 -0.33673 -0.19279 -0.1959 -0.01209 -0.38063 -0.063691 0.50009 0.029249 0.12428 0.42523 -0.25773 -0.14492 0.27905 0.11106 -0.12746 0.27883 -0.077574 0.21109 0.24937 0.10329 -0.045009 -0.47394 0.41598 -0.21231 -0.42557 -0.19472 0.45758 -0.0017579 0.059133 -0.1323 -0.19536 -0.017775 -0.21322 -0.23071 -0.070968 0.21709 0.089272 0.23943 0.16977 -0.3683 -0.19268 0.14667 0.15159 0.48557 -0.029831 0.20017 0.10562 -0.036948 -0.28699 -0.34449 0.065505 0.65236 0.35069 -0.49023 -0.15541 0.20515 0.027053 0.040813 -0.37155 0.10383 0.3671 0.26301 0.43919 -0.011574 0.090766 0.27789 0.30098 -0.2104 0.14923 -0.030094 
advanced -0.21338 0.028823 -0.026491 0.13452 0.10049 0.088738 0.10684 0.061705 0.13933 0.13598 -0.062078 0.11917 0.13389 0.050414 -0.14241 0.074608 0.096135 0.045088 0.070329 -0.19038 -0.032189 0.14409 0.27005 -0.1937 0.092721 -0.1207 0.082763 -0.030241 -0.029574 0.20358 -0.15297 -0.047083 -0.14998 -0.13539 -0.23678 -0.053349 0.078889 -0.21844 0.0074961 -0.23135 0.27792 0.094865 0.049906 -0.03196 0.017603 0.050041 -0.058406 -0.12711 -0.084612 0.04161 -0.034422 0.1097 -0.094621 0.079658 -0.022696 -0.19051 -0.016963 -0.045902 0.0084387 0.15849 -0.18977 0.14312 0.18922 0.068376 -0.1731 -0.051272 -0.21189 0.099872 0.17264 0.1136 -0.19371 -0.14232 -0.024941 0.064457 0.027834 -0.037603 0.16893 0.12877 -0.065712 0.015393 -0.13631 0.10205 0.18647 -0.25379 -0.038587 -0.12703 0.05335 0.023045 0.0036059 -0.041866 0.21817 0.047626 0.10212 -0.18155 0.080394 -0.19244 0.13836 0.12191 -0.068093 -0.09378 -0.00044725 0.060678 0.20074 -0.13526 0.10712 0.11567 -0.12829 0.063659 -0.033399 -0.035102 0.056897 -0.073047 -0.11897 -0.038168 -0.13399 -0.087329 0.15787 0.17113 -0.14599 0.0044571 -0.075825 0.14399 -0.041456 0.1792 -0.14889 -0.13212 -0.22593 0.044414 -0.037544 -0.24181 -0.1285 -0.03128 0.1748 -0.12913 -0.03556 -0.03494 -0.099816 0.12984 -0.069526 -0.04135 -0.1251 0.20808 -0.20527 0.06598 0.12535 0.097288 0.11805 -0.087385 -0.048384 0.11799 -0.078638 0.0027521 0.062603 0.14443 -0.23158 0.027019 -0.16729 0.0762 0.052701 -0.050959 -0.027558 0.032307 0.18529 0.22855 0.094076 -0.13036 -0.20455 -0.093837 -0.020449 -0.059819 0.063933 0.082318 0.065751 -0.1755 -0.07589 -0.080388 -0.12574 0.069898 0.022053 0.15949 0.075241 -0.1535 0.058527 0.04666 0.011327 0.053724 0.00557 -0.14052 -0.11693 0.14319 0.030547 0.038093 0.084076 -0.051302 0.16802 0.027509 -0.0032652 0.017882 -0.057243 -0.22715 0.14245 -0.16519 0.01114 -0.058507 0.026864 -0.10509 -0.11759 -0.13724 0.22502 0.25737 -0.22402 -0.04579 -0.043901 -0.10724 0.0087537 0.022311 0.1011 -0.11955 -0.18637 0.044369 0.10397 -0.14765 -0.15889 0.076294 0.037822 -0.054762 0.099161 -0.14518 -0.1628 0.052137 0.084269 0.11351 -0.10059 0.03133 -0.10371 -0.20482 -0.14728 0.21526 0.064537 0.15131 -0.15927 0.017903 0.11187 -0.01308 0.099235 0.064012 0.15459 0.18099 0.20627 0.19291 -0.035322 0.0081789 0.048996 -0.071954 -0.30567 0.13363 0.021712 -0.1829 -0.168 -0.081559 0.22407 0.1601 0.074818 0.16664 -0.14366 0.077958 -0.077954 -0.062479 -0.0034981 -0.19347 0.12914 0.087074 0.067405 -0.16735 -0.10492 0.11752 0.16768 -0.064995 0.14122 -0.11285 0.20104 -0.066846 -0.22196 -0.11912 -0.043334 -0.09875 0.0096168 0.1827 0.077274 -0.080371 -0.17183 0.047127 0.19391 -0.026675 0.019833 0.03976 -0.027205 0.12273 0.085277 0.11783 
cs 0.71357 -0.19692 0.16426 -0.27128 -0.29272 -0.12338 -0.29526 -0.44658 -0.56809 -0.42098 0.1949 -0.28057 -0.31852 -0.1529 0.48722 -0.28258 -0.28854 -0.10664 -0.11421 0.68286 0.23425 -0.36295 -1.054 0.61157 -0.27995 0.45553 -0.25307 0.064035 0.057294 -0.63041 0.53546 0.21528 0.55452 0.43658 0.88005 0.27075 -0.29504 0.73519 0.0095634 0.80303 -0.93416 -0.03182 -0.044983 0.26043 -0.125 -0.29044 0.32564 0.28074 0.26822 -0.22689 -0.031233 -0.51285 0.2538 -0.41883 0.18854 0.63124 0.25481 0.24481 0.084945 -0.494 0.44561 -0.39127 -0.78754 -0.25548 0.46443 0.23531 0.78859 -0.34425 -0.51182 -0.30613 0.65184 0.66217 0.020383 -0.38861 1.8158e-05 -0.11604 -0.53288 -0.34469 0.41461 -0.10485 0.34984 -0.071664 -0.66204 0.85503 0.16616 0.2252 -0.34245 -0.0011324 -0.11145 0.0057196 -0.80877 -0.14078 -0.13425 0.53861 -0.35574 0.5065 -0.41515 -0.51484 0.40399 0.17635 -0.12082 -0.060421 -0.73285 0.41585 -0.18879 -0.27131 0.36961 -0.25786 0.086369 0.14546 -0.031792 0.058766 0.39265 0.22965 0.51371 0.089044 -0.52795 -0.4709 0.56462 0.19539 0.1808 -0.50498 0.11432 -0.59343 0.43738 0.28778 0.90966 -0.30274 -0.10587 0.9985 0.4098 0.092224 -0.66783 0.29662 0.0071683 0.10367 0.26878 -0.64854 0.53694 0.31941 0.28476 -0.6286 0.90473 -0.31312 -0.3365 -0.44982 -0.21576 0.38212 0.10388 -0.42646 0.24193 0.15344 -0.025847 -0.48743 0.75422 -0.12364 0.49622 -0.19913 -0.048568 0.17122 -0.0077519 -0.17387 -0.57825 -0.63442 -0.38501 0.46644 0.6697 0.1263 -0.25613 0.057866 -0.15475 0.018136 0.016787 0.51463 0.39054 0.10503 0.27433 -0.26598 0.03939 -0.57404 -0.3322 0.5447 -0.074659 0.086728 0.1044 -0.16373 -0.014599 0.40732 0.37477 -0.33764 0.19604 -0.0085337 -0.20858 0.21293 -0.47269 0.034747 0.12278 -0.27022 0.1099 0.668 -0.21132 0.48205 -0.090216 0.22609 0.12821 0.28048 0.23506 0.32157 -0.87771 -0.80565 0.54702 0.026983 -0.072276 0.20335 -0.32511 0.04699 -0.39243 0.41957 0.75958 -0.17108 -0.16996 0.50826 0.4438 -0.36398 -0.24429 0.32099 -0.12737 0.26018 0.50686 -0.16741 -0.21993 -0.16699 0.43263 -0.06715 0.39713 0.74644 0.32523 -0.72178 -0.1376 -0.56047 0.54281 0.11746 -0.49412 0.066386 -0.27426 -0.34082 -0.39209 -0.70488 -0.87642 -0.65446 0.06625 0.14914 -0.33883 0.27884 1.3198 -0.33533 -0.20904 0.57976 0.5229 0.36291 -0.62821 -0.45867 0.035068 -0.43285 0.51084 -0.30889 0.1226 0.12684 0.071921 0.77276 -0.33148 -0.3534 -0.14466 0.28215 0.17307 -0.51009 -0.51226 0.18547 -0.2271 0.42083 -0.60632 -0.0217 0.67298 0.62404 0.25861 0.17965 -0.072474 -0.51367 -0.016798 0.21293 0.4659 -0.37512 -0.83128 0.073486 -0.054244 -0.36934 -0.086272 -0.3195 -0.25869 -0.26191 
systems -0.32218 0.052592 -0.05346 0.1841 0.1512 0.12481 0.16268 0.098779 0.21735 0.20962 -0.091305 0.16815 0.18926 0.068529 -0.21278 0.1077 0.13996 0.060278 0.094803 -0.28284 -0.058738 0.21095 0.40646 -0.28454 0.13735 -0.17659 0.11757 -0.03969 -0.037345 0.30118 -0.23324 -0.073504 -0.22764 -0.20684 -0.35411 -0.082961 0.1184 -0.32491 0.017836 -0.35229 0.40829 0.11725 0.066903 -0.055611 0.03106 0.085547 -0.096865 -0.18458 -0.11946 0.071556 -0.034443 0.16225 -0.13272 0.13078 -0.041529 -0.28396 -0.038658 -0.073479 -0.0006886 0.23886 -0.26589 0.21141 0.28678 0.098409 -0.25104 -0.077631 -0.32421 0.14337 0.24771 0.16578 -0.27986 -0.23017 -0.031978 0.10616 0.038108 -0.040573 0.25363 0.17978 -0.11501 0.031025 -0.19028 0.13932 0.27693 -0.37288 -0.057401 -0.17793 0.087008 0.028817 0.020264 -0.051064 0.32418 0.069811 0.13697 -0.25931 0.1252 -0.27077 0.19972 0.18379 -0.11223 -0.13299 0.0038579 0.078842 0.30187 -0.19784 0.14891 0.15605 -0.18638 0.09946 -0.053025 -0.053113 0.078 -0.090752 -0.17481 -0.069049 -0.19853 -0.11777 0.23757 0.24663 -0.21519 -0.0092017 -0.10578 0.20796 -0.063978 0.26622 -0.21497 -0.18919 -0.34621 0.074175 -0.03797 -0.37149 -0.19469 -0.042791 0.26655 -0.18185 -0.039529 -0.055324 -0.14264 0.20098 -0.12063 -0.07645 -0.16685 0.30643 -0.3175 0.099162 0.17213 0.15438 0.15825 -0.13424 -0.06324 0.18447 -0.11822 -0.010361 0.081902 0.21262 -0.343 0.045817 -0.24161 0.10423 0.060752 -0.076294 -0.034346 0.049851 0.27521 0.3355 0.14375 -0.19576 -0.31091 -0.12544 -0.0094221 -0.08112 0.094789 0.10619 0.082272 -0.25192 -0.12342 -0.10786 -0.17684 0.11345 0.017298 0.24483 0.11915 -0.23308 0.081948 0.052413 0.0083526 0.075143 0.0068766 -0.19962 -0.1756 0.20918 0.024899 0.052643 0.12352 -0.076278 0.23926 0.033287 -0.011663 0.034779 -0.074755 -0.33351 0.19267 -0.23968 0.019307 -0.09445 0.026973 -0.15035 -0.15697 -0.18982 0.34144 0.38527 -0.31724 -0.056639 -0.054736 -0.15227 0.043478 0.016345 0.15173 -0.17753 -0.28272 0.064635 0.13987 -0.22024 -0.22708 0.1232 0.072735 -0.090814 0.14114 -0.19759 -0.23906 0.080305 0.11952 0.15725 -0.15836 0.038925 -0.15325 -0.30503 -0.21395 0.31716 0.089216 0.22172 -0.22863 0.015722 0.17549 -0.022444 0.14266 0.098698 0.2141 0.27621 0.31777 0.28897 -0.04864 0.001359 0.083548 -0.10619 -0.47722 0.19185 0.037576 -0.26959 -0.24692 -0.12871 0.3218 0.22427 0.088165 0.23986 -0.21672 0.12002 -0.098461 -0.089749 -0.012349 -0.28982 0.18372 0.12846 0.088336 -0.22747 -0.13563 0.18241 0.24132 -0.086222 0.18837 -0.17143 0.28877 -0.080989 -0.32558 -0.19468 -0.073671 -0.13797 0.021218 0.25977 0.099159 -0.12191 -0.24569 0.089186 0.29634 -0.03421 0.023651 0.079551 -0.028675 0.17112 0.12068 0.16012 
science 1.1087 -0.3518 0.3014 -0.38084 -0.46088 -0.19085 -0.4547 -0.69368 -0.88667 -0.65362 0.30417 -0.43029 -0.46406 -0.21587 0.75936 -0.45796 -0.46214 -0.1519 -0.17925 1.0533 0.37004 -0.52778 -1.6644 0.93463 -0.42958 0.69666 -0.38901 0.087425 0.073344 -0.95583 0.82494 0.33795 0.84571 0.68195 1.3687 0.4375 -0.45646 1.1281 0.00083295 1.2694 -1.4444 0.016145 -0.053019 0.43953 -0.21954 -0.477 0.50999 0.42426 0.39258 -0.35676 -0.10677 -0.77866 0.33653 -0.65789 0.3123 0.97493 0.41526 0.42407 0.18415 -0.77141 0.67323 -0.59884 -1.229 -0.3932 0.73816 0.39812 1.2392 -0.50077 -0.79247 -0.46653 1.0044 1.0947 -0.0099772 -0.62957 0.0046969 -0.20595 -0.79346 -0.49782 0.68678 -0.20791 0.49944 -0.063503 -0.98847 1.3335 0.24592 0.29276 -0.56102 0.0084504 -0.21881 -0.036108 -1.2639 -0.20461 -0.1224 0.81196 -0.5902 0.75256 -0.63826 -0.77317 0.62781 0.26747 -0.18014 -0.049214 -1.1459 0.6146 -0.24537 -0.36864 0.55489 -0.4115 0.12877 0.21428 -0.053979 0.030147 0.5977 0.40137 0.80711 0.088169 -0.84652 -0.72721 0.85459 0.32855 0.25733 -0.75051 0.22407 -0.9122 0.64352 0.40911 1.4281 -0.49689 -0.19466 1.5998 0.64813 0.1213 -1.068 0.42883 -0.061807 0.14952 0.36094 -1.0335 0.89 0.50911 0.38888 -0.95961 1.4515 -0.47683 -0.46345 -0.73194 -0.26975 0.60865 0.14553 -0.68553 0.38403 0.24491 -0.0098816 -0.75322 1.1546 -0.17683 0.73206 -0.30407 0.0022881 0.26305 -0.010184 -0.25003 -0.91059 -0.98523 -0.59283 0.74514 1.0495 0.15951 -0.49359 0.050075 -0.25726 0.094638 0.075016 0.78434 0.62134 0.13321 0.41867 -0.42461 0.13988 -0.91619 -0.54754 0.84144 -0.11084 0.19304 0.22787 -0.22032 -0.041235 0.5898 0.57304 -0.48341 0.3805 0.0070983 -0.30393 0.34925 -0.71659 0.08082 0.17739 -0.42988 0.11359 1.0447 -0.25033 0.72635 -0.15604 0.34622 0.22299 0.3946 0.29982 0.45281 -1.3815 -1.2474 0.80077 0.039019 -0.15202 0.28562 -0.59891 0.1252 -0.63513 0.66231 1.2044 -0.25589 -0.22026 0.7845 0.67547 -0.59347 -0.43219 0.53429 -0.15543 0.33103 0.76755 -0.24301 -0.34753 -0.17888 0.67625 -0.097445 0.58613 1.1747 0.48761 -1.1125 -0.15718 -0.84221 0.8118 0.24337 -0.77633 0.12248 -0.40794 -0.5507 -0.56312 -1.1097 -1.416 -1.0007 0.073726 0.24535 -0.54974 0.41681 2.1154 -0.48622 -0.3248 0.88529 0.79092 0.57989 -0.94416 -0.67753 0.15546 -0.63639 0.79237 -0.46578 0.13984 0.18519 0.17096 1.2089 -0.4832 -0.55226 -0.16664 0.37212 0.17591 -0.81816 -0.75555 0.2787 -0.27579 0.62035 -0.89346 -0.05897 1.0535 0.99759 0.42302 0.23151 -0.13189 -0.74958 0.045266 0.31266 0.71273 -0.6372 -1.3234 0.097112 -0.065655 -0.63853 -0.1808 -0.48357 -0.36492 -0.35562 
1 -0.13186 0.017137 -0.01758 0.085312 0.066032 0.0632 0.073577 0.01928 0.081431 0.091001 -0.034856 0.075859 0.089529 0.031946 -0.081022 0.04069 0.054967 0.028712 0.044299 -0.11457 -0.012523 0.098724 0.15095 -0.1217 0.059934 -0.068217 0.0488 -0.022422 -0.017125 0.12877 -0.092756 -0.026474 -0.092558 -0.084629 -0.14312 -0.028008 0.045594 -0.13008 0.009345 -0.14462 0.16707 0.069559 0.038468 -0.0098211 0.0044929 0.026771 -0.028427 -0.083939 -0.052659 0.023085 -0.025729 0.056967 -0.064009 0.042198 -0.0087167 -0.11391 -0.00086442 -0.022502 0.013702 0.10224 -0.12771 0.091415 0.10668 0.04114 -0.11118 -0.025834 -0.12574 0.061696 0.10474 0.073916 -0.11871 -0.07867 -0.015676 0.031299 0.020997 -0.038946 0.10912 0.080414 -0.027157 0.0023076 -0.089011 0.076069 0.11175 -0.15676 -0.024846 -0.093601 0.023102 0.018644 0.00085909 -0.032571 0.12553 0.02995 0.078025 -0.11276 0.040956 -0.12434 0.085721 0.072246 -0.03742 -0.064471 -0.0031853 0.040847 0.11798 -0.088406 0.079764 0.074321 -0.081877 0.038692 -0.024327 -0.022393 0.046445 -0.050998 -0.070693 -0.020023 -0.076469 -0.063643 0.098108 0.10699 -0.081618 0.010159 -0.049198 0.084206 -0.023914 0.11163 -0.097298 -0.089637 -0.13262 0.016983 -0.029658 -0.13639 -0.083461 -0.018502 0.097546 -0.083994 -0.02783 -0.023627 -0.064698 0.064419 -0.027717 -0.014026 -0.079674 0.13132 -0.10972 0.03243 0.077436 0.055369 0.081282 -0.047394 -0.032983 0.075269 -0.051535 0.0067368 0.044678 0.086783 -0.14566 0.015543 -0.10318 0.050289 0.037109 -0.029538 -0.022177 0.017986 0.11671 0.14549 0.054635 -0.075387 -0.13112 -0.064716 -0.02778 -0.044481 0.039109 0.062829 0.055933 -0.11073 -0.040668 -0.060081 -0.08756 0.046957 0.021984 0.097867 0.043494 -0.096254 0.041372 0.039317 0.018352 0.035412 0.0011907 -0.087006 -0.073668 0.096951 0.03147 0.030316 0.05621 -0.027984 0.10727 0.020801 0.002013 0.00094586 -0.042434 -0.14233 0.10407 -0.10804 0.0062919 -0.037417 0.028953 -0.067398 -0.078908 -0.088162 0.13091 0.16434 -0.14941 -0.032672 -0.037325 -0.073321 -0.0050574 0.020363 0.059719 -0.073328 -0.10728 0.027256 0.072719 -0.093735 -0.10184 0.042811 0.02272 -0.027248 0.071474 -0.10145 -0.10087 0.033057 0.055639 0.07975 -0.058185 0.021922 -0.064426 -0.12243 -0.098289 0.131 0.042444 0.085974 -0.097619 0.023936 0.061912 -0.010398 0.06535 0.028238 0.096183 0.10374 0.11865 0.12245 -0.024153 0.015448 0.023 -0.04209 -0.17448 0.090599 0.0050303 -0.11296 -0.10705 -0.047967 0.14086 0.098046 0.061224 0.10875 -0.087821 0.043056 -0.049517 -0.039375 0.00058896 -0.1115 0.081385 0.046119 0.045903 -0.1167 -0.068783 0.070216 0.10717 -0.039851 0.10042 -0.06746 0.12774 -0.054418 -0.14108 -0.062909 -0.025282 -0.068268 0.006666 0.11538 0.06123 -0.054547 -0.11212 0.019264 0.11077 -0.016989 0.013416 0.014084 -0.029558 0.080233 0.04931 0.073376 
professor 0.33448 0.12708 -0.078417 -0.51612 -0.18275 -0.40964 -0.27507 0.3534 0.058597 -0.16374 0.095523 -0.34568 -0.30717 0.055314 0.18248 -0.091123 -0.28607 -0.062224 -0.32102 0.096125 -0.15274 -0.32377 -0.20349 0.2997 -0.14919 -0.00967 -0.1084 0.027617 -0.015102 -0.23878 0.17317 -0.019848 0.023644 0.2734 0.1322 -0.046866 -0.046806 0.22017 -0.21168 0.37293 -0.35515 -0.41005 -0.22737 -0.11459 -0.021131 0.019557 -0.17838 0.41868 -0.0094008 0.090382 0.072469 0.263 -0.0027287 0.12861 -0.1082 0.2715 -0.26598 0.05613 0.027291 -0.3512 0.56601 -0.35755 0.019277 0.016032 0.53466 0.07281 0.24172 0.042287 -0.31676 -0.23281 0.16331 0.15567 -0.064932 0.15007 -0.25676 0.42066 -0.17769 -0.13648 -0.11893 -0.09403 0.19472 -0.48821 -0.012538 0.34664 -0.09971 0.36724 0.15801 -0.13549 -0.036544 0.12903 -0.1207 -0.035449 -0.19379 0.26979 -0.047888 0.31813 -0.2762 0.18474 -0.25415 0.4053 0.31305 -0.15166 -0.14988 0.15648 -0.30842 -0.14259 0.18087 -0.053654 0.10575 -0.069055 -0.45539 0.2175 0.095328 0.042961 0.047998 0.37429 -0.31552 -0.44574 -0.097953 -0.28041 0.16122 0.060224 0.32451 -0.24591 0.18096 0.36086 0.087501 0.12018 0.35483 0.15419 0.30627 -0.043024 -0.21074 0.30649 -0.084228 0.02537 0.011262 0.15147 -0.30273 -0.2576 0.15162 -0.33482 0.039249 0.16365 -0.084708 -0.015088 -0.22308 -0.024379 0.082902 -0.23661 0.19339 -0.30717 -0.2952 -0.11006 0.30185 0.11015 0.16951 -0.18375 0.042994 0.068038 0.28388 0.16185 -0.40909 -0.57196 0.037087 0.15607 0.3751 0.35538 0.30968 0.19878 -0.30682 -0.43386 -0.39696 0.33994 -0.10298 0.32817 0.45421 -0.096834 0.083426 -0.24344 -0.12177 0.10434 -0.3139 -0.31876 -0.055656 0.056619 -0.07899 0.10032 0.14935 -0.36518 -0.36367 -0.2461 -0.20491 0.076431 -0.32159 -0.21304 -0.3075 0.36173 -0.010582 0.49483 -0.41676 0.29424 0.028291 0.033792 -0.39348 0.1315 0.16605 0.2269 -0.10189 -0.47623 0.52312 0.29291 0.34862 0.35628 0.17881 -0.055152 -0.13276 0.17755 0.069574 0.011811 -0.32804 0.13192 0.31836 0.031031 -0.089908 -0.081762 -0.43186 0.30216 0.20143 -0.045016 -0.31011 -0.26436 0.0014221 -0.043224 -0.10343 0.20375 0.49223 -0.241 -0.011289 0.078518 0.033581 -0.12291 0.039142 0.082369 -0.2014 0.097544 -0.23434 -0.08658 -0.08948 -0.1744 0.018887 -0.30316 0.20418 -0.048629 0.096377 -0.28841 0.25469 0.22647 0.23881 0.016365 -0.38842 -0.20268 -0.23179 -0.35211 0.12847 0.041755 0.14946 0.2232 0.10442 0.0027309 -0.27233 -0.0109 0.0047706 0.50999 0.11583 -0.019585 -0.14195 0.052184 -0.35878 -0.073742 -0.20617 0.48534 0.48659 -0.15932 -0.042702 0.25549 0.0076621 -0.20298 -0.33252 0.16979 0.43645 0.10625 0.045413 0.024096 0.033092 0.13441 0.22591 -0.2757 -0.01049 -0.16523 
of -0.087518 -0.013198 0.014736 0.076939 0.046277 0.033215 0.044809 0.03788 0.075496 0.071633 -0.025357 0.051998 0.06869 0.042043 -0.056317 0.019903 0.01754 0.031695 0.01609 -0.096271 -0.014702 0.078007 0.092763 -0.088585 0.043447 -0.064608 0.041392 -0.022809 -0.033505 0.1095 -0.066389 -0.018986 -0.084292 -0.043128 -0.10497 -0.0091213 0.040003 -0.099136 -0.025822 -0.075219 0.11132 0.078095 0.027794 0.0087871 -0.015055 -0.00018389 -0.036186 -0.049468 -0.068327 0.022988 -0.065751 0.082638 -0.09597 0.033355 0.0051226 -0.074644 0.0051867 0.018925 0.059005 0.047418 -0.076767 0.055228 0.081336 0.042385 -0.035094 0.0092829 -0.070019 0.079801 0.072413 0.049814 -0.09251 0.0034065 -0.05798 0.012963 -0.0024886 -0.026403 0.096582 0.093856 -0.00092562 -0.033302 -0.092241 0.06763 0.11597 -0.094652 -0.03545 -0.0906 0.013055 0.016034 -0.045114 -0.047717 0.088222 0.037931 0.11311 -0.087721 0.0034533 -0.11194 0.050765 0.090863 -0.042804 -0.020197 0.031717 0.059339 0.078846 -0.078999 0.078653 0.09349 -0.07201 0.014917 -0.012502 -0.034464 -0.0035586 -0.071234 -0.066702 0.025101 -0.055414 -0.059987 0.031838 0.055408 -0.093652 0.017662 -0.044211 0.10586 0.047192 0.073868 -0.093648 -0.071998 -0.09022 -0.0024318 -0.02637 -0.058983 -0.035146 -0.034643 0.037094 -0.074782 -0.093966 -0.031278 -0.10127 0.037474 0.0018402 -0.022253 -0.1046 0.094281 -0.044602 0.050785 0.098426 0.015631 0.096913 -0.028883 -0.035858 0.022682 -0.02396 -0.016116 0.045112 0.071641 -0.10345 0.036341 -0.10486 0.028988 0.093954 -0.021179 0.012112 0.039478 0.05397 0.072524 0.04523 -0.037691 -0.072026 -0.057387 -0.074805 -0.051203 -0.0065456 0.07737 0.05329 -0.06868 -0.030571 -0.046027 -0.036254 0.023329 0.086306 0.041398 -0.0078788 -0.077345 0.015014 0.055536 0.060063 0.063891 -0.019078 -0.10424 -0.054446 0.07769 0.059273 0.019847 0.041598 0.0015288 0.078469 0.015431 -0.035061 0.016162 -0.081716 -0.072773 0.11508 -0.08122 -0.0046996 -0.030042 0.014649 -0.083881 -0.10669 -0.094274 0.083982 0.098789 -0.12222 -0.0054526 -0.037201 -0.064721 -0.062697 0.046455 0.013185 -0.034151 -0.05699 0.02535 0.07154 -0.071441 -0.068326 0.021101 -0.03587 -0.00011399 0.058677 -0.12832 -0.085441 0.031414 0.011509 0.1146 -0.040992 0.023841 -0.089263 -0.069679 -0.060457 0.092799 0.083183 0.10859 -0.10117 0.060952 0.045139 0.014696 0.048652 0.014838 0.10484 0.066763 0.049389 0.10463 -0.051592 -0.00067094 0.014797 -0.050093 -0.07258 0.075699 0.028128 -0.092804 -0.080632 -0.024238 0.11286 0.092199 0.12322 0.089169 -0.058955 0.052208 -0.07255 -0.026353 0.058025 -0.08721 0.065007 0.030994 0.088121 -0.11125 -0.12936 0.034967 0.11015 -0.039051 0.11904 -0.088421 0.12932 -0.027643 -0.06921 -0.040488 -0.0026417 -0.081764 -0.011362 0.12096 0.077618 -0.045348 -0.061795 -0.02723 0.074467 -0.022503 0.025282 -0.038259 -0.045453 0.052871 0.066862 0.096921 
data -0.31801 0.037395 -0.031685 0.2011 0.14158 0.11811 0.15394 0.10635 0.20828 0.18824 -0.088155 0.16306 0.17822 0.055767 -0.21408 0.11958 0.14622 0.051847 0.095405 -0.27243 -0.061675 0.19953 0.41685 -0.28016 0.12854 -0.17029 0.11744 -0.033668 -0.031813 0.2831 -0.22452 -0.073665 -0.21697 -0.20445 -0.34789 -0.08547 0.11998 -0.31261 0.022128 -0.35058 0.4017 0.09597 0.058496 -0.068853 0.040016 0.090977 -0.09098 -0.17338 -0.11404 0.069375 -0.022397 0.15582 -0.11587 0.13393 -0.044447 -0.27539 -0.045216 -0.086037 -0.010223 0.22935 -0.26137 0.20108 0.28337 0.098159 -0.25117 -0.08532 -0.32221 0.13272 0.24438 0.15322 -0.27003 -0.24072 -0.015596 0.11195 0.035425 -0.037754 0.23627 0.16375 -0.11712 0.039236 -0.1751 0.12382 0.26141 -0.37132 -0.055693 -0.15995 0.090638 0.026651 0.027433 -0.034491 0.31984 0.062465 0.11129 -0.25367 0.12911 -0.25402 0.19679 0.1743 -0.10854 -0.1259 0.0013401 0.062969 0.29363 -0.18755 0.13561 0.1448 -0.17727 0.09491 -0.052126 -0.04983 0.078296 -0.079707 -0.16803 -0.077785 -0.19724 -0.11005 0.23273 0.24206 -0.20355 -0.015256 -0.10014 0.19276 -0.069662 0.25983 -0.20085 -0.17786 -0.3466 0.076092 -0.027314 -0.37858 -0.19433 -0.039817 0.26232 -0.17408 -0.025702 -0.048589 -0.12585 0.20253 -0.13238 -0.074209 -0.15535 0.29238 -0.32439 0.098929 0.15711 0.15494 0.14195 -0.13448 -0.058578 0.18503 -0.11617 -0.011283 0.072505 0.20269 -0.33341 0.036028 -0.22499 0.1063 0.040081 -0.07514 -0.039651 0.045917 0.27328 0.32592 0.13505 -0.18871 -0.30602 -0.11432 0.0092642 -0.067489 0.093955 0.085831 0.074086 -0.24762 -0.12257 -0.1017 -0.17139 0.11232 0.0019786 0.24384 0.12533 -0.22542 0.077425 0.035473 -0.0073009 0.064017 0.0062771 -0.18461 -0.16373 0.19217 0.012471 0.045057 0.11773 -0.082427 0.23457 0.024049 -0.0078054 0.036489 -0.065699 -0.32394 0.17185 -0.23573 0.024269 -0.091285 0.020884 -0.14281 -0.14042 -0.17833 0.33637 0.37615 -0.30063 -0.057919 -0.040591 -0.14117 0.054025 0.0084926 0.15579 -0.17686 -0.27979 0.060532 0.13414 -0.21266 -0.22058 0.1239 0.07841 -0.091842 0.12806 -0.1774 -0.23177 0.072849 0.12412 0.13365 -0.15886 0.039265 -0.14378 -0.30459 -0.20344 0.30952 0.072579 0.20901 -0.22267 0.0018264 0.17468 -0.027238 0.13326 0.099414 0.20047 0.27095 0.32276 0.28111 -0.045509 -0.0010609 0.086431 -0.097904 -0.4745 0.1789 0.037313 -0.25998 -0.2371 -0.13344 0.30725 0.2167 0.066331 0.23037 -0.20992 0.11332 -0.086402 -0.084055 -0.018796 -0.28652 0.171 0.1315 0.080111 -0.21295 -0.12246 0.18218 0.22928 -0.083519 0.17249 -0.16141 0.27616 -0.074139 -0.3206 -0.19393 -0.078643 -0.12848 0.019157 0.24161 0.086787 -0.11396 -0.2408 0.099727 0.29566 -0.030923 0.022107 0.084891 -0.022538 0.17053 0.11225 0.14771 
osa 0.71144 -0.20027 0.16506 -0.26869 -0.29604 -0.12299 -0.29342 -0.45212 -0.57 -0.42192 0.20147 -0.28094 -0.31959 -0.15117 0.49105 -0.28906 -0.28918 -0.11053 -0.11626 0.68279 0.23467 -0.36146 -1.0641 0.61433 -0.28424 0.45619 -0.2571 0.062337 0.058331 -0.63264 0.53971 0.21945 0.55227 0.4335 0.88362 0.27119 -0.29824 0.73502 0.012275 0.80551 -0.93799 -0.028759 -0.045758 0.26585 -0.12299 -0.28813 0.32812 0.27923 0.27187 -0.2316 -0.039887 -0.51196 0.24837 -0.42071 0.19224 0.62802 0.25261 0.24867 0.085041 -0.49457 0.44525 -0.39135 -0.78733 -0.25576 0.46873 0.23807 0.791 -0.34438 -0.5155 -0.30878 0.65549 0.66846 0.018009 -0.39286 0.00072607 -0.11488 -0.52986 -0.34375 0.42074 -0.10747 0.34918 -0.066688 -0.65848 0.86293 0.17028 0.21695 -0.34758 -0.0039482 -0.1133 0.00061802 -0.81502 -0.14097 -0.12877 0.54174 -0.35785 0.5091 -0.4173 -0.51227 0.40583 0.1746 -0.12047 -0.058852 -0.73786 0.41292 -0.18548 -0.26986 0.36867 -0.25707 0.081782 0.1462 -0.032073 0.051805 0.39816 0.23696 0.51552 0.085239 -0.53201 -0.47173 0.56934 0.19828 0.17923 -0.50357 0.11987 -0.59127 0.43365 0.2861 0.9159 -0.30047 -0.10521 1.0086 0.40634 0.091839 -0.66901 0.29924 0.006473 0.10795 0.2683 -0.65517 0.54043 0.31987 0.28211 -0.63295 0.91009 -0.31385 -0.33417 -0.45781 -0.21124 0.38889 0.10743 -0.42365 0.24345 0.15368 -0.026848 -0.48912 0.75588 -0.12298 0.50014 -0.1976 -0.044398 0.16984 -0.010346 -0.17068 -0.58133 -0.63552 -0.38041 0.47318 0.67297 0.12336 -0.26306 0.06028 -0.15361 0.024062 0.017761 0.51454 0.39014 0.10288 0.27485 -0.27106 0.046304 -0.57937 -0.33388 0.55029 -0.073469 0.0895 0.11287 -0.16238 -0.012935 0.40756 0.37846 -0.33053 0.20354 -0.005865 -0.20894 0.21596 -0.47213 0.040746 0.12142 -0.27237 0.10879 0.66992 -0.2102 0.48489 -0.089929 0.22223 0.12685 0.27506 0.23026 0.3189 -0.88065 -0.80745 0.54547 0.028257 -0.073541 0.20601 -0.33178 0.050592 -0.39501 0.41968 0.76205 -0.17333 -0.16763 0.50688 0.44694 -0.3692 -0.24782 0.32519 -0.12187 0.25692 0.51026 -0.16252 -0.22027 -0.16272 0.42944 -0.066995 0.40101 0.75025 0.32683 -0.72514 -0.13588 -0.56473 0.54064 0.11729 -0.49494 0.064143 -0.27363 -0.34211 -0.39304 -0.70597 -0.88333 -0.66085 0.06694 0.14985 -0.34436 0.27435 1.3256 -0.32943 -0.20796 0.58588 0.52423 0.36708 -0.6332 -0.45663 0.034373 -0.43434 0.51319 -0.30902 0.12117 0.12119 0.07885 0.77544 -0.32602 -0.35485 -0.14374 0.28078 0.16951 -0.50985 -0.51535 0.18693 -0.22957 0.41871 -0.60706 -0.024237 0.67421 0.62353 0.25951 0.17555 -0.074928 -0.51743 -0.011726 0.21471 0.46616 -0.37441 -0.84103 0.071616 -0.050785 -0.36858 -0.086542 -0.31906 -0.25477 -0.26067 
database -0.21851 0.020981 -0.019625 0.15236 0.10018 0.088695 0.11307 0.05426 0.1312 0.13025 -0.063672 0.11916 0.13116 0.03447 -0.1458 0.080059 0.10624 0.038539 0.072003 -0.18495 -0.036069 0.14399 0.27563 -0.19495 0.094171 -0.11553 0.079933 -0.021711 -0.02045 0.19862 -0.158 -0.050474 -0.1414 -0.1419 -0.23591 -0.055127 0.08146 -0.21589 0.022032 -0.24035 0.27575 0.08494 0.05181 -0.035034 0.024598 0.060701 -0.051836 -0.13354 -0.074646 0.040485 -0.018598 0.093025 -0.078056 0.077115 -0.025271 -0.18945 -0.017976 -0.052228 -0.0036844 0.16754 -0.1918 0.14816 0.18198 0.059801 -0.18576 -0.056504 -0.22088 0.089449 0.16866 0.10874 -0.18859 -0.16255 -0.00963 0.062667 0.032399 -0.039713 0.1601 0.11699 -0.067951 0.027693 -0.12762 0.099627 0.17012 -0.25447 -0.034749 -0.12325 0.055548 0.023228 0.020424 -0.028707 0.21502 0.045336 0.086233 -0.17691 0.086721 -0.17839 0.14092 0.1033 -0.062852 -0.098038 -0.0097738 0.048052 0.1984 -0.13078 0.10313 0.099622 -0.12416 0.068437 -0.036984 -0.03034 0.066579 -0.061779 -0.11523 -0.048237 -0.13315 -0.085118 0.16403 0.1777 -0.13173 -0.00037471 -0.070744 0.1237 -0.056908 0.1812 -0.14238 -0.13282 -0.22883 0.048244 -0.032593 -0.24983 -0.13506 -0.025467 0.17985 -0.12675 -0.01339 -0.030874 -0.082244 0.12465 -0.070973 -0.038601 -0.10622 0.20703 -0.20988 0.053484 0.10905 0.10298 0.10487 -0.086281 -0.040948 0.12715 -0.08794 0.0044154 0.05992 0.13564 -0.22831 0.0214 -0.15409 0.072863 0.03291 -0.054424 -0.03413 0.022911 0.19696 0.23763 0.088901 -0.12875 -0.21441 -0.094141 -0.0078291 -0.052538 0.074548 0.076462 0.063253 -0.1728 -0.075987 -0.078145 -0.13429 0.072973 -0.00062141 0.16472 0.088309 -0.14995 0.0663 0.042516 -0.0014713 0.040801 0.0079297 -0.12679 -0.11284 0.1461 0.021923 0.043599 0.085331 -0.051284 0.16792 0.023466 0.0070547 0.010683 -0.045563 -0.23216 0.1339 -0.16667 0.014777 -0.057345 0.033711 -0.096353 -0.10276 -0.12704 0.22283 0.2642 -0.21878 -0.050457 -0.042117 -0.10813 0.024949 0.0087552 0.10775 -0.12033 -0.18678 0.03729 0.099067 -0.14648 -0.15321 0.075229 0.052978 -0.055584 0.099862 -0.13258 -0.15716 0.053095 0.09265 0.099574 -0.10013 0.027843 -0.094525 -0.20219 -0.1539 0.20751 0.054808 0.13646 -0.14428 0.0082824 0.11189 -0.017801 0.099401 0.057998 0.14005 0.17877 0.20781 0.19285 -0.029673 0.0084374 0.046642 -0.061569 -0.31335 0.13429 0.013864 -0.18225 -0.16526 -0.082601 0.22064 0.14789 0.055289 0.16512 -0.14046 0.071769 -0.069709 -0.063303 -0.017775 -0.18831 0.12523 0.085114 0.051741 -0.15958 -0.087969 0.12201 0.15887 -0.060182 0.13029 -0.10474 0.18992 -0.070716 -0.22631 -0.12255 -0.051279 -0.096414 0.0095983 0.17089 0.070726 -0.081193 -0.17663 0.056148 0.18628 -0.025391 0.014186 0.047804 -0.027473 0.11875 0.077266 0.10406 
director 0.095626 0.70927 -0.54601 -1.2218 -0.11123 -0.88208 -0.36482 1.3021 0.8583 0.17415 0.03497 -0.58002 -0.33491 0.41695 -0.030257 0.0051934 -0.50338 0.027883 -0.6932 -0.55459 -0.61911 -0.34144 0.52382 0.085118 -0.047909 -0.55289 0.018714 -0.038225 -0.15605 0.17448 -0.17685 -0.2899 -0.60021 0.2224 -0.67097 -0.37984 0.2298 -0.29527 -0.59316 0.082133 0.15746 -0.86059 -0.48042 -0.50483 0.022217 0.29057 -0.82125 0.72307 -0.40182 0.47155 0.081137 1.2774 -0.40879 0.7579 -0.43383 -0.0048459 -0.90126 -0.045831 0.098113 -0.35419 0.90211 -0.46508 0.90326 0.35639 0.85935 -0.0030023 -0.22679 0.56561 -0.21061 -0.20866 -0.35252 -0.19482 -0.27787 0.76548 -0.66049 1.1333 0.21835 0.144 -0.6941 -0.21522 0.0001503 -1.0717 0.78844 -0.064433 -0.47351 0.5842 0.73992 -0.31219 -0.053735 0.25119 0.60835 0.10853 -0.17254 0.029064 0.21866 0.15311 -0.23546 1.1103 -1.0963 0.82709 0.95475 -0.23656 0.43342 -0.12375 -0.47664 0.029282 -0.0087529 0.12839 0.17145 -0.36907 -1.1369 0.37684 -0.22282 -0.077449 -0.43923 0.76882 -0.25365 -0.60314 -0.9325 -0.86877 0.16245 0.78582 0.79125 0.053053 -0.097965 0.53517 -0.75855 0.58988 0.95641 -0.6432 0.34313 -0.25129 0.15395 0.38811 -0.36484 -0.079646 -0.38358 1.0582 -1.2689 -0.99286 -0.046481 -0.11596 -0.82416 0.77876 0.25592 0.40764 -0.20681 -0.46082 0.06515 -0.16462 0.21537 -0.93955 -0.64959 0.29659 -0.10936 0.45798 -0.19229 -0.23725 0.28673 -0.025699 0.7431 0.61852 -0.39465 -0.72857 0.526 -0.10971 0.19784 0.70151 0.92229 0.3705 -0.63738 -1.0057 -0.93888 0.25385 -0.68014 0.66195 0.82248 0.048447 0.29202 -0.0013383 0.01373 -0.36854 -0.69311 -0.80997 -0.16499 0.39286 -0.226 -0.28223 -0.060831 -0.49585 -1.0247 -0.58826 -0.25862 -0.0067438 -0.25309 -0.55323 -0.94445 1.1971 -0.25763 0.49589 -0.69107 0.16797 0.16131 -0.16426 -1.1081 -0.056475 0.042299 0.13159 0.71356 -0.27916 0.62716 0.70032 0.90374 0.61588 0.69736 -0.12028 0.079202 0.0063868 -0.65003 0.2226 -0.58017 -0.26342 0.2663 0.46705 -0.035052 -0.51235 -0.89023 0.34093 -0.10131 0.088538 -0.55617 -0.36032 -0.46377 -0.020838 -0.76326 -0.30118 0.84895 0.21568 0.2182 0.88317 -0.57527 -0.34097 0.63445 0.16568 -0.18215 0.60485 -0.080641 0.55694 0.6939 0.32079 -0.075447 -0.91014 0.86425 -0.44628 -1.131 -0.30331 0.88324 -0.12295 0.003086 -0.34758 -0.22703 0.047255 -0.47722 -0.35045 -0.24419 0.46583 0.16953 0.41784 0.25322 -0.85725 -0.2912 0.35548 0.26163 0.87437 -0.01311 0.50071 0.27569 -0.099225 -0.54 -0.69842 0.21614 1.2171 0.47588 -1.0601 -0.37066 0.37307 0.081423 0.14457 -0.73072 0.16442 0.56915 0.60985 1.0129 -0.031083 0.1716 0.65947 0.61192 -0.32029 0.30851 -0.038167 
object -0.23782 0.032734 -0.030755 0.1429 0.10662 0.082901 0.11216 0.086415 0.16016 0.14512 -0.064909 0.12187 0.13314 0.042593 -0.16033 0.08592 0.11065 0.042888 0.063787 -0.21068 -0.049465 0.14495 0.3111 -0.2113 0.10174 -0.13602 0.089371 -0.026038 -0.020197 0.21401 -0.17174 -0.056225 -0.16322 -0.14928 -0.26312 -0.066256 0.092142 -0.23521 0.015562 -0.25844 0.30442 0.071224 0.044781 -0.055735 0.029448 0.071639 -0.076458 -0.12807 -0.082435 0.058465 -0.013335 0.12435 -0.089311 0.10381 -0.033727 -0.20456 -0.037079 -0.066157 -0.0063736 0.1761 -0.18785 0.15077 0.22062 0.077416 -0.18219 -0.064995 -0.24114 0.10281 0.18408 0.11466 -0.20483 -0.18535 -0.017004 0.089987 0.022059 -0.019539 0.17761 0.12268 -0.096827 0.028477 -0.13255 0.08395 0.20284 -0.275 -0.044995 -0.11734 0.074825 0.020361 0.017405 -0.024604 0.24481 0.046298 0.080626 -0.18909 0.096173 -0.19269 0.14725 0.13613 -0.088337 -0.092986 0.0045751 0.047232 0.22289 -0.13979 0.098492 0.10427 -0.13503 0.076596 -0.037322 -0.04217 0.055516 -0.052408 -0.12922 -0.054477 -0.1541 -0.078067 0.17565 0.17987 -0.15972 -0.01466 -0.075574 0.14731 -0.050296 0.1981 -0.15374 -0.13205 -0.26374 0.060668 -0.017588 -0.28658 -0.14355 -0.03267 0.20305 -0.12673 -0.020062 -0.034456 -0.098787 0.16314 -0.1057 -0.060275 -0.11849 0.22167 -0.2446 0.074269 0.12092 0.11847 0.10505 -0.10555 -0.046939 0.14076 -0.087568 -0.013569 0.049618 0.1555 -0.24861 0.033252 -0.17441 0.079576 0.032979 -0.05657 -0.022662 0.03687 0.20342 0.23936 0.10717 -0.14396 -0.226 -0.082197 0.016165 -0.049964 0.070174 0.061069 0.052402 -0.18353 -0.094683 -0.070209 -0.12455 0.080757 0.004527 0.17992 0.09553 -0.16815 0.057688 0.026666 -0.0027686 0.052129 0.0037411 -0.14177 -0.12389 0.1419 0.0045168 0.030316 0.087468 -0.060677 0.17067 0.018319 -0.0087861 0.037725 -0.051188 -0.24308 0.1281 -0.17346 0.017229 -0.070533 0.0088923 -0.10456 -0.1054 -0.13146 0.25461 0.279 -0.22235 -0.035894 -0.026297 -0.10339 0.047691 0.0037964 0.11613 -0.13167 -0.2126 0.0474 0.094006 -0.16525 -0.16155 0.093927 0.059933 -0.077108 0.090199 -0.13231 -0.1699 0.058017 0.090218 0.10095 -0.12069 0.028437 -0.11291 -0.22725 -0.14702 0.23581 0.054573 0.16126 -0.16733 0.0024228 0.13085 -0.018489 0.10255 0.082466 0.15325 0.20808 0.24743 0.21523 -0.033944 -0.0096459 0.070672 -0.075428 -0.36591 0.13578 0.036492 -0.19349 -0.17611 -0.099364 0.23199 0.16439 0.04926 0.1693 -0.15765 0.088753 -0.066033 -0.060432 -0.017077 -0.22167 0.12991 0.098284 0.059465 -0.15539 -0.091545 0.14082 0.17728 -0.064847 0.12379 -0.12661 0.20991 -0.049884 -0.23697 -0.15575 -0.064261 -0.093047 0.017527 0.18589 0.061567 -0.083737 -0.17981 0.077101 0.23026 -0.028623 0.016286 0.066491 -0.011466 0.12241 0.086479 0.11114 
project -0.12523 0.03942 -0.040317 0.058407 0.06775 0.061102 0.070052 0.014496 0.087449 0.098892 -0.035196 0.073466 0.09452 0.036337 -0.071285 0.031268 0.043858 0.036398 0.04164 -0.10659 -0.0087785 0.093114 0.1312 -0.11084 0.056461 -0.068717 0.049494 -0.019869 -0.020755 0.12274 -0.090013 -0.025947 -0.086528 -0.077364 -0.13292 -0.018938 0.046102 -0.12875 0.001516 -0.13102 0.158 0.078695 0.039308 -0.0080194 0.0032841 0.017261 -0.02488 -0.079714 -0.052882 0.021704 -0.036709 0.059051 -0.067351 0.040114 -0.00086398 -0.11145 0.0062775 -0.015414 0.017901 0.089722 -0.11934 0.084351 0.10245 0.039791 -0.10193 -0.016932 -0.1207 0.063499 0.1034 0.06752 -0.11057 -0.065541 -0.024139 0.023843 0.023226 -0.038256 0.10721 0.085289 -0.02408 -0.0025718 -0.087677 0.075561 0.1131 -0.14651 -0.021979 -0.094241 0.021728 0.017 -0.0080848 -0.035633 0.12112 0.029551 0.083287 -0.10925 0.039816 -0.11915 0.081 0.0689 -0.034397 -0.059105 -0.0035601 0.048177 0.11131 -0.08674 0.075309 0.078573 -0.082171 0.03618 -0.021613 -0.024736 0.039933 -0.057516 -0.073979 -0.013441 -0.073866 -0.067664 0.089991 0.098432 -0.081793 0.015598 -0.049703 0.082034 -0.019912 0.10757 -0.090338 -0.085031 -0.12336 0.010985 -0.030857 -0.12744 -0.072628 -0.023245 0.088309 -0.084524 -0.03682 -0.024032 -0.068794 0.062073 -0.022535 -0.0141 -0.07976 0.1216 -0.10476 0.032772 0.08276 0.051147 0.08239 -0.046075 -0.032015 0.065224 -0.050697 0.0064718 0.044267 0.086019 -0.13811 0.018067 -0.10013 0.045975 0.039499 -0.033177 -0.016224 0.016092 0.10749 0.13733 0.051046 -0.072893 -0.12 -0.066812 -0.033727 -0.045402 0.034912 0.063745 0.055417 -0.10654 -0.040885 -0.054732 -0.076863 0.039301 0.021637 0.091796 0.041241 -0.093312 0.03933 0.041042 0.021065 0.036635 0.0020323 -0.086919 -0.071834 0.093456 0.037477 0.03333 0.053059 -0.025562 0.10345 0.021526 0.00027032 0.0052643 -0.045185 -0.13442 0.10128 -0.098952 0.0068017 -0.033086 0.028302 -0.073034 -0.079241 -0.090199 0.128 0.15543 -0.14353 -0.028301 -0.040642 -0.069919 -0.011233 0.020774 0.052902 -0.065724 -0.097517 0.024147 0.068348 -0.09075 -0.0957 0.035922 0.014625 -0.021403 0.068655 -0.096688 -0.096833 0.030508 0.046032 0.084852 -0.058008 0.021649 -0.061833 -0.11326 -0.096373 0.12201 0.042776 0.09038 -0.093096 0.024957 0.058684 -0.0082225 0.058327 0.0292 0.096143 0.10214 0.11204 0.11615 -0.026918 0.0097164 0.02181 -0.037296 -0.1588 0.085406 0.00818 -0.10829 -0.10342 -0.043646 0.13653 0.099244 0.058288 0.10527 -0.083094 0.048423 -0.052367 -0.040574 0.0073378 -0.1064 0.081852 0.046456 0.044934 -0.10871 -0.070422 0.066637 0.10475 -0.03919 0.095044 -0.06742 0.12172 -0.049739 -0.13128 -0.061871 -0.021424 -0.063953 0.0026205 0.11091 0.054378 -0.051736 -0.10591 0.020945 0.10323 -0.012806 0.01243 0.011243 -0.025053 0.070573 0.052962 0.070771 
oriented -0.23652 0.031172 -0.029228 0.14111 0.10257 0.084822 0.11773 0.089309 0.16184 0.14257 -0.070581 0.11773 0.13058 0.043965 -0.15905 0.086604 0.11051 0.040663 0.067604 -0.20691 -0.052404 0.14662 0.31772 -0.21049 0.097692 -0.1354 0.084016 -0.024892 -0.023615 0.21577 -0.16969 -0.057006 -0.16304 -0.14921 -0.26779 -0.063508 0.088698 -0.23374 0.011845 -0.26413 0.30558 0.069177 0.042197 -0.050024 0.03115 0.071108 -0.075748 -0.12937 -0.083755 0.052286 -0.016029 0.1283 -0.086287 0.099645 -0.033135 -0.20549 -0.03719 -0.063489 -0.0090022 0.17448 -0.18972 0.14681 0.21655 0.073765 -0.18277 -0.064846 -0.2432 0.10259 0.18422 0.11364 -0.21014 -0.18156 -0.016786 0.089092 0.028111 -0.017561 0.18034 0.1251 -0.093145 0.027226 -0.13497 0.08397 0.19816 -0.27553 -0.039686 -0.11809 0.073072 0.019437 0.021618 -0.023939 0.24524 0.051316 0.084175 -0.19067 0.095778 -0.18875 0.1456 0.13287 -0.089843 -0.089139 0.0092748 0.043863 0.22303 -0.14276 0.099021 0.10676 -0.13401 0.07444 -0.036528 -0.036917 0.054449 -0.053211 -0.12592 -0.058837 -0.15335 -0.078298 0.17865 0.17963 -0.16202 -0.018548 -0.071753 0.14701 -0.05206 0.19729 -0.1531 -0.12668 -0.26527 0.062931 -0.017815 -0.28615 -0.14648 -0.031424 0.19926 -0.12964 -0.016183 -0.037271 -0.098209 0.15745 -0.10797 -0.061308 -0.11752 0.22287 -0.24673 0.073477 0.12118 0.12346 0.10027 -0.10147 -0.04383 0.13526 -0.087356 -0.0095097 0.047358 0.15457 -0.24812 0.03451 -0.17444 0.079175 0.035584 -0.054411 -0.024751 0.035397 0.20642 0.24039 0.10391 -0.14823 -0.22659 -0.082326 0.015753 -0.052109 0.068906 0.05822 0.047197 -0.18277 -0.093628 -0.071549 -0.12398 0.083679 0.004776 0.18131 0.094916 -0.16702 0.056923 0.022951 -0.0074486 0.05323 0.0050004 -0.13905 -0.12333 0.14249 0.0032473 0.035133 0.086637 -0.063052 0.17569 0.015031 -0.0074499 0.040064 -0.050022 -0.2384 0.12769 -0.17165 0.015539 -0.066532 0.013659 -0.10614 -0.10335 -0.13263 0.25618 0.27781 -0.22008 -0.036696 -0.026898 -0.10375 0.050171 0.007169 0.11787 -0.13032 -0.21394 0.048733 0.095833 -0.16143 -0.16449 0.097954 0.058218 -0.072123 0.089847 -0.13093 -0.17516 0.056138 0.087622 0.098099 -0.11847 0.025874 -0.11188 -0.22685 -0.14875 0.23632 0.058136 0.16473 -0.17066 0.00058065 0.13323 -0.017836 0.1 0.080454 0.14883 0.20836 0.24405 0.21017 -0.033377 -0.0063128 0.068922 -0.075297 -0.36511 0.13314 0.037878 -0.19797 -0.18025 -0.097797 0.22841 0.16318 0.048759 0.16746 -0.15664 0.091078 -0.068931 -0.058594 -0.013466 -0.2166 0.12908 0.097473 0.06353 -0.1523 -0.092329 0.14242 0.17301 -0.062807 0.12697 -0.12227 0.20952 -0.049446 -0.23691 -0.15591 -0.063874 -0.09094 0.016009 0.18069 0.056937 -0.086939 -0.18144 0.076989 0.22477 -0.022856 0.015542 0.066362 -0.0098636 0.12338 0.081759 0.10816 
special 0.010562 0.24664 -0.18644 -0.41351 -0.026126 -0.3168 -0.12087 0.4875 0.32855 0.078294 0.0022828 -0.19475 -0.10543 0.15908 -0.029857 0.0087174 -0.17844 0.019647 -0.2481 -0.22754 -0.22905 -0.10568 0.21532 0.0045087 -0.0085957 -0.21787 0.019296 -0.020548 -0.067738 0.090784 -0.083532 -0.11293 -0.24283 0.069743 -0.27008 -0.13966 0.09427 -0.13264 -0.22641 0.014145 0.084962 -0.29115 -0.16418 -0.17869 0.0032556 0.1069 -0.31063 0.25298 -0.1692 0.17814 0.012488 0.48641 -0.17856 0.28218 -0.15909 -0.022873 -0.32831 -0.0091886 0.055373 -0.11375 0.3101 -0.15455 0.34617 0.14279 0.30914 0.0034533 -0.099163 0.23073 -0.060876 -0.062676 -0.1559 -0.066026 -0.11913 0.27791 -0.23995 0.40506 0.10675 0.081817 -0.25347 -0.090327 -0.028692 -0.37191 0.32251 -0.050121 -0.18499 0.18394 0.26831 -0.11043 -0.036111 0.077759 0.24548 0.052657 -0.025359 -0.012363 0.0766 0.023276 -0.071106 0.43174 -0.41033 0.29781 0.35694 -0.070195 0.17853 -0.070465 -0.15275 0.03668 -0.022051 0.046576 0.061085 -0.14768 -0.41527 0.11627 -0.098914 -0.021693 -0.17494 0.26001 -0.088831 -0.20308 -0.36787 -0.31014 0.045185 0.31427 0.30741 0.041955 -0.06228 0.17471 -0.29542 0.20976 0.34251 -0.2425 0.11942 -0.10292 0.064704 0.11553 -0.15924 -0.039383 -0.17544 0.39552 -0.45746 -0.36891 -0.045455 -0.011585 -0.31128 0.30017 0.11979 0.14958 -0.042496 -0.17795 0.015906 -0.053317 0.071161 -0.34535 -0.22362 0.1292 -0.07189 0.18104 -0.10405 -0.077759 0.13702 -0.012929 0.27587 0.24053 -0.13335 -0.24812 0.20532 -0.045552 0.057659 0.23427 0.31121 0.11627 -0.2365 -0.33894 -0.32519 0.074974 -0.25154 0.22615 0.2898 0.025439 0.13376 0.011917 0.0029179 -0.15538 -0.25073 -0.27852 -0.04195 0.16085 -0.089161 -0.13278 -0.035303 -0.15552 -0.35012 -0.20557 -0.083207 -0.0011726 -0.071087 -0.19613 -0.35545 0.43602 -0.11672 0.15853 -0.21738 0.037224 0.054668 -0.069638 -0.39968 -0.042617 -0.017427 0.016543 0.28181 -0.075662 0.19512 0.25546 0.31945 0.20682 0.23136 -0.024429 0.032159 -0.007483 -0.25043 0.086983 -0.18653 -0.11346 0.078269 0.17371 -0.028033 -0.18116 -0.30945 0.086494 -0.060867 0.042836 -0.20358 -0.099252 -0.17954 0.00077878 -0.30403 -0.12647 0.28915 0.10429 0.10686 0.35594 -0.23955 -0.099156 0.23991 0.07051 -0.052204 0.22084 -0.00037607 0.21981 0.26261 0.14782 -0.044593 -0.33106 0.31685 -0.17516 -0.42977 -0.084395 0.32834 -0.072434 -0.025612 -0.13264 -0.050144 0.045657 -0.13273 -0.09854 -0.1024 0.18581 0.041165 0.14659 0.10852 -0.33476 -0.082939 0.13639 0.12426 0.27951 -0.049612 0.19191 0.13322 -0.047641 -0.15699 -0.2839 0.11899 0.43457 0.1597 -0.39692 -0.13208 0.1129 0.027253 0.093528 -0.24216 0.047847 0.1883 0.21383 0.3855 -0.017518 0.068469 0.22296 0.21035 -0.10046 0.1357 0.015332 
2 -0.094205 0.0056593 -0.0060092 0.072564 0.043711 0.048437 0.053673 0.013281 0.055417 0.059773 -0.02636 0.057896 0.063825 0.022477 -0.061149 0.033078 0.041765 0.018808 0.037821 -0.079953 -0.0094177 0.069288 0.10851 -0.08688 0.044019 -0.047893 0.037613 -0.011675 -0.014273 0.089158 -0.068461 -0.019896 -0.061807 -0.063173 -0.096835 -0.017583 0.032323 -0.094027 0.0089636 -0.10131 0.12424 0.057863 0.032075 -0.0028662 0.0019162 0.017285 -0.019958 -0.064156 -0.03629 0.017595 -0.023563 0.040228 -0.045809 0.030036 -0.0049544 -0.086574 0.0032882 -0.01507 0.011198 0.075549 -0.093357 0.064746 0.074781 0.025576 -0.083613 -0.019458 -0.092708 0.041871 0.077418 0.05499 -0.082971 -0.051986 -0.014469 0.016639 0.021264 -0.028377 0.080609 0.058377 -0.0171 0.001965 -0.066272 0.063096 0.08 -0.11221 -0.017261 -0.065658 0.018055 0.016463 -0.0042093 -0.022676 0.089889 0.025273 0.057908 -0.084135 0.026488 -0.088937 0.061221 0.046244 -0.018856 -0.046087 -0.008082 0.030025 0.082712 -0.060398 0.058106 0.057006 -0.062418 0.026595 -0.017509 -0.017261 0.031813 -0.042397 -0.052076 -0.011216 -0.051004 -0.04787 0.070834 0.082727 -0.060592 0.0093942 -0.037736 0.057441 -0.019365 0.07645 -0.068498 -0.069325 -0.091798 0.0094416 -0.029868 -0.098186 -0.057765 -0.013984 0.072808 -0.061469 -0.019943 -0.015633 -0.049489 0.043196 -0.011392 -0.0094059 -0.060208 0.092956 -0.077477 0.02598 0.057557 0.039051 0.061817 -0.034285 -0.02216 0.052242 -0.040021 0.0079782 0.032856 0.063427 -0.1031 0.0095422 -0.073002 0.036674 0.025132 -0.021343 -0.015343 0.0080757 0.08434 0.10588 0.034518 -0.05453 -0.095844 -0.05312 -0.0265 -0.032102 0.032324 0.051334 0.041387 -0.079641 -0.026089 -0.045828 -0.063532 0.033498 0.016448 0.068405 0.029635 -0.068662 0.033046 0.035523 0.01138 0.021972 0.0021244 -0.064287 -0.051465 0.074083 0.031065 0.028427 0.04018 -0.020532 0.076189 0.021583 0.003204 -0.0058232 -0.028291 -0.10584 0.077961 -0.075167 0.0058078 -0.027135 0.021861 -0.049722 -0.05566 -0.06615 0.088246 0.11644 -0.10626 -0.023034 -0.029339 -0.056227 -0.0097056 0.011543 0.041241 -0.052417 -0.071108 0.018069 0.053884 -0.063121 -0.074048 0.026469 0.013577 -0.018421 0.054828 -0.077603 -0.07527 0.023401 0.038825 0.062461 -0.042483 0.013564 -0.041657 -0.087992 -0.077561 0.090335 0.035654 0.063989 -0.070089 0.017861 0.045331 -0.0061322 0.046558 0.018384 0.072837 0.07295 0.076565 0.08308 -0.022046 0.015398 0.012744 -0.026657 -0.12077 0.065709 0.00085596 -0.084676 -0.074638 -0.032058 0.10601 0.07349 0.04744 0.077592 -0.06192 0.034804 -0.038031 -0.032342 0.0033352 -0.073153 0.063955 0.037123 0.035746 -0.087576 -0.05154 0.044222 0.078594 -0.027191 0.072913 -0.048943 0.094305 -0.042618 -0.1009 -0.041628 -0.011349 -0.054291 0.0049418 0.080904 0.044887 -0.039256 -0.083415 0.010417 0.07535 -0.010531 0.0075196 0.0020238 -0.025651 0.059514 0.035596 0.058745 
in -0.15445 -0.0009761 0.0012337 0.12404 0.068927 0.061567 0.079102 0.049009 0.09171 0.083753 -0.045531 0.083721 0.083705 0.018646 -0.10596 0.063574 0.077775 0.024694 0.052724 -0.13204 -0.028127 0.094118 0.20409 -0.14075 0.062804 -0.08011 0.054492 -0.015824 -0.010926 0.13887 -0.10798 -0.035118 -0.099446 -0.099454 -0.16182 -0.040472 0.055898 -0.15259 0.014617 -0.17283 0.19208 0.051695 0.031572 -0.027575 0.021493 0.045078 -0.04012 -0.091069 -0.053389 0.029517 -0.012523 0.06683 -0.055519 0.059089 -0.018724 -0.13583 -0.016011 -0.039112 -0.0077497 0.11824 -0.13098 0.10236 0.13346 0.045097 -0.12787 -0.040514 -0.15638 0.063236 0.119 0.078788 -0.13336 -0.11356 -0.0043158 0.047208 0.019035 -0.024133 0.11093 0.081482 -0.052019 0.018367 -0.088695 0.067518 0.12312 -0.17674 -0.022293 -0.082007 0.043846 0.015194 0.014834 -0.023114 0.14713 0.02987 0.055916 -0.12037 0.061845 -0.12463 0.098827 0.076222 -0.049503 -0.06553 -0.0026392 0.032371 0.13554 -0.092261 0.071318 0.069002 -0.087581 0.044346 -0.024623 -0.023753 0.047364 -0.038416 -0.082481 -0.03754 -0.095281 -0.05932 0.11518 0.1204 -0.096795 -0.0015513 -0.050601 0.089904 -0.039465 0.12672 -0.097794 -0.091792 -0.16381 0.033242 -0.019586 -0.17756 -0.092481 -0.019617 0.12657 -0.084762 -0.011504 -0.023396 -0.06193 0.091524 -0.057951 -0.031836 -0.074227 0.14601 -0.15058 0.043532 0.079612 0.075057 0.069071 -0.060987 -0.026777 0.087357 -0.059975 -0.0018964 0.041591 0.098893 -0.15895 0.016529 -0.11141 0.052615 0.021727 -0.034853 -0.021431 0.019858 0.13637 0.16299 0.062671 -0.094845 -0.14911 -0.062895 -0.0055145 -0.034932 0.049557 0.049552 0.042533 -0.11952 -0.052436 -0.054028 -0.091249 0.053736 0.0040964 0.11827 0.061442 -0.10676 0.04318 0.023577 -0.0021615 0.029555 0.0039208 -0.086884 -0.082515 0.098331 0.015656 0.026781 0.056167 -0.04118 0.11293 0.014174 -0.00068794 0.010114 -0.032447 -0.15932 0.088738 -0.1147 0.0076702 -0.042033 0.020433 -0.065671 -0.070664 -0.088204 0.15642 0.17887 -0.15209 -0.034569 -0.02447 -0.0731 0.019361 0.0052477 0.071808 -0.086518 -0.13004 0.031252 0.068434 -0.098306 -0.10826 0.056336 0.038035 -0.041353 0.066675 -0.091187 -0.109 0.038144 0.059647 0.072511 -0.071535 0.017112 -0.06809 -0.14058 -0.10199 0.14506 0.034673 0.10113 -0.10361 0.0045396 0.076565 -0.011163 0.065291 0.045 0.099173 0.12789 0.14564 0.13141 -0.019952 0.0050878 0.034307 -0.046834 -0.21904 0.091438 0.015805 -0.12526 -0.11699 -0.062929 0.14845 0.10849 0.040364 0.11729 -0.10186 0.055597 -0.044625 -0.041017 -0.0087496 -0.13546 0.087264 0.059964 0.040575 -0.10896 -0.064541 0.082304 0.11442 -0.041748 0.088329 -0.071853 0.13595 -0.046385 -0.15647 -0.085385 -0.031451 -0.064271 0.0096645 0.11745 0.047811 -0.057289 -0.12261 0.03982 0.13615 -0.016913 0.0092241 0.035603 -0.014619 0.081515 0.055171 0.074671 
topics -0.15467 -0.0049289 0.0026972 0.12334 0.068264 0.060173 0.077803 0.053798 0.088523 0.081209 -0.044121 0.082926 0.08213 0.023533 -0.10715 0.061177 0.079548 0.02228 0.047213 -0.12923 -0.025747 0.10004 0.20237 -0.13502 0.063985 -0.083329 0.059127 -0.013518 -0.0093493 0.13437 -0.11022 -0.037265 -0.099826 -0.10127 -0.16758 -0.037071 0.05635 -0.15219 0.015584 -0.17206 0.19814 0.054399 0.030297 -0.031096 0.017256 0.042407 -0.042937 -0.087881 -0.049922 0.034245 -0.012659 0.070085 -0.05447 0.056786 -0.016988 -0.13649 -0.017748 -0.039572 -0.0062777 0.11553 -0.128 0.10414 0.13527 0.043098 -0.1253 -0.04042 -0.15654 0.062299 0.11813 0.076094 -0.12871 -0.11761 -0.0075866 0.04992 0.021064 -0.020787 0.11563 0.081395 -0.054252 0.019934 -0.08513 0.0677 0.12318 -0.18024 -0.020419 -0.082317 0.042078 0.014519 0.012468 -0.02023 0.14823 0.033082 0.059077 -0.12465 0.061081 -0.12633 0.095266 0.0795 -0.044777 -0.066555 -0.002987 0.033949 0.13717 -0.093096 0.068933 0.066713 -0.082703 0.048672 -0.025007 -0.0203 0.042793 -0.042632 -0.082831 -0.036965 -0.091897 -0.055714 0.11225 0.12354 -0.09173 -0.002065 -0.047312 0.088995 -0.035691 0.12749 -0.099994 -0.088304 -0.15971 0.035001 -0.018287 -0.17891 -0.09509 -0.017094 0.12425 -0.088319 -0.008483 -0.024137 -0.057504 0.094262 -0.053773 -0.032411 -0.077204 0.14071 -0.15017 0.040794 0.074402 0.072404 0.067079 -0.060074 -0.027348 0.091234 -0.06117 0.0012208 0.035708 0.093726 -0.15836 0.014714 -0.10937 0.054806 0.022409 -0.03742 -0.022211 0.020983 0.13595 0.15925 0.066901 -0.088805 -0.14881 -0.058604 -0.0055892 -0.035302 0.052037 0.048897 0.039782 -0.11725 -0.057709 -0.050453 -0.086477 0.055355 0.0033384 0.11463 0.062524 -0.1072 0.039022 0.024145 0.0015212 0.030048 0.0035548 -0.087114 -0.081204 0.097653 0.015758 0.026567 0.055006 -0.038592 0.114 0.016095 0.0045076 0.014205 -0.031007 -0.16166 0.088897 -0.11386 0.0082305 -0.044208 0.016183 -0.067091 -0.0712 -0.08861 0.15944 0.18313 -0.15222 -0.028905 -0.026294 -0.07106 0.019674 0.0073045 0.074461 -0.086807 -0.12834 0.026273 0.065655 -0.099757 -0.10644 0.057692 0.035426 -0.037985 0.067948 -0.08916 -0.11188 0.037021 0.064145 0.069869 -0.069936 0.021273 -0.06659 -0.14216 -0.10362 0.15054 0.036677 0.098642 -0.10521 0.0038587 0.076229 -0.010851 0.065832 0.043257 0.10295 0.12966 0.14695 0.13368 -0.024606 0.0020796 0.033168 -0.045653 -0.22249 0.092245 0.016942 -0.1284 -0.1168 -0.061058 0.15247 0.10364 0.038345 0.1153 -0.096186 0.051152 -0.048623 -0.042356 -0.009939 -0.1291 0.087892 0.057559 0.04127 -0.1123 -0.062535 0.083794 0.11492 -0.039417 0.091065 -0.07245 0.13736 -0.046939 -0.15956 -0.086357 -0.034027 -0.065667 0.0054345 0.11975 0.046539 -0.05665 -0.11793 0.040516 0.13636 -0.016595 0.0093037 0.03617 -0.016906 0.082233 0.052738 0.076365 
head 0.23413 0.35284 -0.26451 -0.7633 -0.1396 -0.55488 -0.29061 0.65824 0.35282 -0.013687 0.066774 -0.41102 -0.28502 0.19843 0.098483 -0.063059 -0.36088 -0.010251 -0.43251 -0.14752 -0.30441 -0.29631 0.050303 0.20587 -0.099941 -0.20599 -0.052157 -0.004447 -0.075507 -0.064517 0.031808 -0.1151 -0.21226 0.23848 -0.17168 -0.15947 0.057846 0.015069 -0.34576 0.24891 -0.14699 -0.52488 -0.29802 -0.2339 -0.013197 0.10625 -0.395 0.4948 -0.1636 0.21514 0.049757 0.61697 -0.16685 0.34215 -0.2121 0.15597 -0.46849 0.03361 0.068966 -0.32692 0.64324 -0.36669 0.32959 0.1462 0.62164 0.053088 0.064081 0.24295 -0.25471 -0.1996 -0.040402 0.040308 -0.15472 0.35482 -0.38504 0.6379 -0.009469 -0.011348 -0.3093 -0.14959 0.091697 -0.65242 0.29353 0.17441 -0.23061 0.40155 0.34654 -0.18479 -0.054464 0.14867 0.15622 0.024733 -0.14193 0.15176 0.038432 0.22406 -0.23923 0.5177 -0.5389 0.52735 0.52726 -0.16088 0.069572 0.03174 -0.3328 -0.058411 0.087755 0.012976 0.11997 -0.18024 -0.66846 0.24326 -0.033553 0.0049856 -0.13287 0.47757 -0.28001 -0.46941 -0.39851 -0.46422 0.14387 0.33137 0.48644 -0.12102 0.05647 0.39043 -0.21618 0.27368 0.54169 -0.12973 0.30176 -0.12264 -0.074304 0.30343 -0.20107 -0.018164 -0.15293 0.45948 -0.61228 -0.50052 0.051486 -0.22821 -0.26482 0.3792 0.059981 0.13259 -0.17946 -0.17396 0.070918 -0.19624 0.18507 -0.50773 -0.39388 0.050011 0.122 0.23739 0.014439 -0.19091 0.1525 0.025888 0.43302 0.31976 -0.37411 -0.58873 0.20936 0.055278 0.28308 0.44648 0.47922 0.23758 -0.41375 -0.59265 -0.55361 0.27835 -0.30193 0.41784 0.54888 -0.037757 0.1731 -0.14558 -0.07503 -0.074126 -0.42777 -0.45721 -0.072238 0.18101 -0.13443 -0.059077 0.063082 -0.37822 -0.55948 -0.34676 -0.20457 0.043845 -0.26615 -0.3128 -0.51748 0.63371 -0.11894 0.46103 -0.46533 0.22181 0.070848 -0.039377 -0.61983 0.044539 0.088515 0.16042 0.19679 -0.36383 0.50746 0.41532 0.5117 0.41307 0.33167 -0.059622 -0.050113 0.10634 -0.19248 0.085381 -0.38764 -0.024986 0.27223 0.1849 -0.074001 -0.22385 -0.55849 0.27336 0.068361 0.0073633 -0.3796 -0.26089 -0.16472 -0.030313 -0.34516 0.013879 0.58021 -0.05418 0.085655 0.37495 -0.19514 -0.17259 0.25132 0.11628 -0.17485 0.27112 -0.15294 0.15426 0.18859 0.02193 -0.023617 -0.49588 0.42206 -0.19173 -0.34175 -0.26318 0.46336 0.076772 0.13046 -0.10842 -0.29498 -0.093608 -0.28039 -0.31826 -0.017012 0.19468 0.13566 0.27811 0.16083 -0.30778 -0.25621 0.11738 0.11087 0.59067 0.039082 0.16496 0.029026 -0.0087966 -0.3802 -0.2988 -0.025355 0.71151 0.44757 -0.46952 -0.15497 0.2691 0.027326 -0.047076 -0.43643 0.15016 0.45023 0.27022 0.38981 0.0017278 0.086571 0.29822 0.34332 -0.26484 0.11606 -0.092121 
operating -0.050164 0.031823 -0.032008 0.006829 0.027632 0.028938 0.025324 -0.0019548 0.038077 0.049215 -0.013262 0.029206 0.045489 0.024112 -0.027569 0.0070692 0.012798 0.016885 0.018802 -0.044126 0.00028467 0.044018 0.039781 -0.046444 0.019557 -0.025659 0.01657 -0.012684 -0.010543 0.052221 -0.037111 -0.010196 -0.034412 -0.030444 -0.054513 -0.0056266 0.020891 -0.055644 -0.00082563 -0.049975 0.064878 0.040105 0.020355 0.0053214 -0.0018854 0.0034083 -0.0079367 -0.031374 -0.025041 0.00992 -0.024093 0.021485 -0.034004 0.014767 0.0045416 -0.042496 0.0036404 0.00035411 0.016251 0.036696 -0.046277 0.035182 0.038686 0.015326 -0.036509 -0.00032969 -0.042915 0.03013 0.038651 0.032523 -0.045313 -0.014061 -0.0163 0.0093323 0.010579 -0.018657 0.050123 0.038412 -0.0073301 -0.00902 -0.043496 0.038605 0.04926 -0.0589 -0.01293 -0.044075 0.0050095 0.0080472 -0.006363 -0.020579 0.047981 0.014867 0.043435 -0.050012 0.0068758 -0.056719 0.030912 0.032879 -0.012981 -0.024878 -0.00080746 0.024593 0.04615 -0.035275 0.039289 0.035576 -0.037736 0.010142 -0.0065238 -0.011969 0.016746 -0.026122 -0.032299 -0.0017226 -0.02592 -0.029212 0.034545 0.042745 -0.033861 0.0094656 -0.023951 0.034884 0.00023592 0.042913 -0.038408 -0.037659 -0.049085 0.0041694 -0.017759 -0.043234 -0.027905 -0.007691 0.033936 -0.037531 -0.019853 -0.011596 -0.033761 0.019846 -0.00091742 -0.002343 -0.042237 0.049817 -0.035491 0.012388 0.037417 0.0131 0.040577 -0.013138 -0.015381 0.022107 -0.016452 0.0045194 0.023558 0.033051 -0.058412 0.0086492 -0.043558 0.016403 0.023454 -0.0095138 -0.0033649 0.0089646 0.041648 0.056683 0.01825 -0.025476 -0.045491 -0.029157 -0.020855 -0.019964 0.010487 0.032942 0.029416 -0.0427 -0.014096 -0.026334 -0.032892 0.01347 0.017785 0.034908 0.0097674 -0.039941 0.018748 0.021913 0.011656 0.014634 -0.00021339 -0.038315 -0.030853 0.038063 0.024554 0.010705 0.024182 -0.0063127 0.044927 0.01296 0.0002447 0.001648 -0.020739 -0.053682 0.048711 -0.03948 -0.0025443 -0.012153 0.0094507 -0.033477 -0.04145 -0.039523 0.048065 0.061346 -0.064789 -0.0094701 -0.019049 -0.030307 -0.011498 0.0097705 0.017041 -0.024524 -0.037045 0.012837 0.032417 -0.034802 -0.038588 0.015259 -0.00079111 -0.0062301 0.032247 -0.049197 -0.041402 0.017308 0.01763 0.042468 -0.018356 0.006255 -0.026177 -0.040885 -0.041711 0.049305 0.022011 0.040485 -0.039224 0.014824 0.024638 -0.0030417 0.027122 0.0078518 0.040545 0.03761 0.038691 0.049443 -0.010412 0.0079824 0.0070236 -0.02023 -0.058417 0.033532 0.0055758 -0.048623 -0.042267 -0.016547 0.056421 0.040721 0.030323 0.044802 -0.034597 0.017954 -0.026467 -0.016804 0.005302 -0.042004 0.033713 0.017553 0.020935 -0.052434 -0.034695 0.020321 0.040777 -0.014661 0.041802 -0.028018 0.051955 -0.020995 -0.051134 -0.019055 -0.0054765 -0.028925 -0.0016903 0.046731 0.031301 -0.018797 -0.039081 0.0023508 0.039449 -0.0042604 0.0058175 -0.0032815 -0.015777 0.028781 0.019929 0.034929 
mining -0.15157 0.014438 -0.015993 0.1002 0.066913 0.05523 0.076181 0.051523 0.096851 0.089415 -0.042397 0.07742 0.082645 0.024146 -0.099657 0.056226 0.072336 0.027882 0.046011 -0.12995 -0.027597 0.090727 0.20252 -0.13504 0.061699 -0.082454 0.054391 -0.019254 -0.014484 0.13587 -0.11194 -0.033895 -0.10114 -0.098623 -0.17038 -0.045245 0.056899 -0.15273 0.0096773 -0.1651 0.19305 0.044319 0.027052 -0.033582 0.018069 0.048081 -0.049139 -0.086126 -0.052903 0.033702 -0.006692 0.076977 -0.056858 0.065422 -0.021149 -0.13565 -0.021517 -0.043608 -0.0071313 0.10946 -0.12331 0.095473 0.14055 0.047358 -0.12129 -0.039168 -0.15209 0.067531 0.11897 0.076699 -0.13462 -0.11848 -0.0057849 0.056936 0.015383 -0.015747 0.11101 0.078035 -0.057388 0.02128 -0.083698 0.056053 0.12865 -0.18001 -0.026616 -0.075107 0.049418 0.0094514 0.01311 -0.019184 0.15648 0.032962 0.053023 -0.12077 0.065142 -0.12313 0.092775 0.084474 -0.056386 -0.061235 0.0045804 0.02986 0.14474 -0.088242 0.062192 0.069551 -0.08638 0.048468 -0.025515 -0.022041 0.032829 -0.037883 -0.079517 -0.036949 -0.097163 -0.049219 0.11496 0.11626 -0.097945 -0.012019 -0.050438 0.096284 -0.036314 0.12666 -0.097478 -0.081023 -0.16811 0.040386 -0.015669 -0.18307 -0.095735 -0.01934 0.12904 -0.0849 -0.013397 -0.024731 -0.061891 0.099664 -0.065591 -0.034677 -0.075133 0.13878 -0.15391 0.048432 0.078233 0.078709 0.067895 -0.068427 -0.028212 0.091094 -0.054641 -0.0028926 0.029271 0.098838 -0.16027 0.019232 -0.10942 0.046243 0.020548 -0.035665 -0.013423 0.024287 0.12793 0.15349 0.069878 -0.092972 -0.14835 -0.056594 0.007131 -0.030714 0.041843 0.037185 0.035498 -0.11632 -0.061561 -0.048035 -0.079573 0.051148 0.0044097 0.11313 0.062366 -0.10939 0.037169 0.019538 -0.0035439 0.034266 0.0046175 -0.091055 -0.078748 0.089525 -4.7834e-05 0.023439 0.054191 -0.03934 0.11388 0.012172 -0.0016554 0.019537 -0.033768 -0.15668 0.085177 -0.11229 0.0090532 -0.041275 0.0083026 -0.06929 -0.06822 -0.085557 0.16513 0.17647 -0.14435 -0.028174 -0.016763 -0.06736 0.028112 0.0026485 0.077274 -0.083506 -0.13914 0.031612 0.061623 -0.1042 -0.10489 0.056895 0.037145 -0.0462 0.061298 -0.083679 -0.10799 0.03322 0.059449 0.067139 -0.072878 0.015293 -0.074736 -0.14741 -0.099069 0.15086 0.033911 0.10091 -0.10367 -0.0026027 0.08709 -0.013665 0.065994 0.047881 0.098272 0.13399 0.15221 0.13491 -0.020774 -0.0025367 0.043308 -0.048978 -0.23166 0.084165 0.018186 -0.12756 -0.11614 -0.063445 0.14608 0.103 0.032668 0.10923 -0.10291 0.053943 -0.042927 -0.042314 -0.0089236 -0.14117 0.080941 0.0603 0.040666 -0.10263 -0.056444 0.087655 0.11041 -0.043012 0.080092 -0.07665 0.13598 -0.032941 -0.15051 -0.096712 -0.039538 -0.063203 0.0080133 0.11862 0.037137 -0.051378 -0.11739 0.050705 0.14481 -0.016938 0.0090334 0.044617 -0.0078962 0.082426 0.053368 0.068488 
system 0.69407 -0.19189 0.15702 -0.27374 -0.29187 -0.12654 -0.29023 -0.42353 -0.54883 -0.40674 0.19466 -0.28297 -0.30828 -0.13768 0.48116 -0.28983 -0.29478 -0.098012 -0.11998 0.65926 0.22283 -0.35241 -1.0495 0.60325 -0.27675 0.4346 -0.24804 0.059269 0.044843 -0.61055 0.52692 0.20793 0.53382 0.43106 0.8582 0.26854 -0.28498 0.71612 -0.0061227 0.80049 -0.9195 -0.012248 -0.044887 0.26377 -0.13535 -0.29131 0.31492 0.28433 0.24581 -0.22082 -0.058792 -0.48179 0.22173 -0.4041 0.19039 0.62178 0.24666 0.25845 0.10406 -0.49317 0.44252 -0.38626 -0.76587 -0.24334 0.47558 0.24201 0.78216 -0.31696 -0.51096 -0.30276 0.63626 0.67843 -0.0024056 -0.3855 -0.0091185 -0.10471 -0.50538 -0.32033 0.4126 -0.12241 0.32961 -0.068279 -0.62633 0.84917 0.15356 0.20538 -0.34053 -0.0022223 -0.12695 -0.011628 -0.79598 -0.13007 -0.10072 0.52172 -0.36134 0.48939 -0.40725 -0.48083 0.38118 0.18466 -0.10445 -0.043861 -0.72111 0.39133 -0.16985 -0.2462 0.35842 -0.25504 0.081317 0.13259 -0.04881 0.035772 0.38149 0.24505 0.50352 0.076145 -0.53364 -0.47438 0.53743 0.19181 0.17408 -0.47054 0.14523 -0.58232 0.41866 0.27649 0.88863 -0.30162 -0.10047 0.99714 0.41119 0.082256 -0.66805 0.28751 -0.025752 0.095381 0.2362 -0.63715 0.53525 0.30715 0.25882 -0.61642 0.89827 -0.29334 -0.30758 -0.45433 -0.19066 0.3788 0.096049 -0.42964 0.24657 0.13982 -0.024439 -0.47643 0.73975 -0.11133 0.47283 -0.19851 -0.013668 0.16939 0.007383 -0.15196 -0.58442 -0.638 -0.36961 0.46623 0.67357 0.11726 -0.27682 0.047894 -0.17009 0.027703 0.019959 0.50523 0.37977 0.10508 0.27844 -0.26787 0.073643 -0.57368 -0.34173 0.52963 -0.082623 0.091244 0.12412 -0.14542 -0.021897 0.37745 0.36858 -0.3252 0.20754 -0.0056144 -0.19784 0.2206 -0.4632 0.036651 0.10286 -0.25422 0.084605 0.66617 -0.18989 0.47324 -0.089102 0.21404 0.1141 0.26166 0.20849 0.30631 -0.86065 -0.79764 0.53516 0.033969 -0.070113 0.19627 -0.34594 0.067396 -0.39578 0.41814 0.74777 -0.16028 -0.16098 0.49194 0.44125 -0.35991 -0.25681 0.32362 -0.12684 0.23526 0.48795 -0.1555 -0.23026 -0.14184 0.41625 -0.064836 0.36993 0.74087 0.32971 -0.70702 -0.10795 -0.52538 0.51286 0.13243 -0.47935 0.076638 -0.2613 -0.33149 -0.37076 -0.69223 -0.87393 -0.63371 0.055755 0.13892 -0.32509 0.26378 1.3108 -0.32268 -0.19368 0.56622 0.50691 0.3604 -0.61263 -0.44036 0.063255 -0.42266 0.49779 -0.29405 0.10371 0.12817 0.095712 0.74973 -0.31894 -0.3459 -0.12106 0.26694 0.13377 -0.50485 -0.49061 0.17853 -0.20407 0.3927 -0.57443 -0.011333 0.67382 0.61002 0.25945 0.16708 -0.076942 -0.48564 0.00054506 0.20691 0.4664 -0.37608 -0.81477 0.062592 -0.046251 -0.37681 -0.094408 -0.31659 -0.23523 -0.24213 
information 0.40651 -0.13918 0.1234 -0.1283 -0.16759 -0.076428 -0.17169 -0.23661 -0.31811 -0.246 0.11024 -0.15987 -0.17932 -0.079087 0.27105 -0.16339 -0.1687 -0.061159 -0.071459 0.3786 0.12517 -0.20354 -0.5975 0.34781 -0.16239 0.24983 -0.14627 0.033402 0.024207 -0.35241 0.30463 0.12135 0.31001 0.25082 0.49717 0.1538 -0.16625 0.41242 -0.0087314 0.4686 -0.53331 -0.010448 -0.022854 0.15506 -0.077435 -0.16887 0.1766 0.16395 0.14078 -0.12817 -0.03485 -0.27237 0.12105 -0.23594 0.11147 0.35729 0.14322 0.1554 0.066582 -0.29112 0.26224 -0.22646 -0.44105 -0.13978 0.28406 0.14586 0.45369 -0.18167 -0.29842 -0.17824 0.36978 0.40157 -0.0048127 -0.22015 -0.0051153 -0.062778 -0.29379 -0.18411 0.2437 -0.079054 0.18681 -0.035118 -0.36172 0.49521 0.083477 0.11692 -0.19804 0.00083852 -0.081122 -0.0081004 -0.4586 -0.076339 -0.050156 0.30363 -0.21586 0.27704 -0.23826 -0.27526 0.22204 0.11013 -0.057899 -0.018859 -0.41923 0.22619 -0.099552 -0.13385 0.20494 -0.14971 0.0496 0.079136 -0.035798 0.014768 0.22007 0.14409 0.29709 0.045275 -0.31145 -0.27841 0.30622 0.11398 0.10086 -0.27091 0.092777 -0.33852 0.2343 0.15778 0.52152 -0.17713 -0.059719 0.58192 0.24487 0.043891 -0.39396 0.16412 -0.024521 0.050894 0.13224 -0.36734 0.31211 0.17358 0.14219 -0.35827 0.52453 -0.1686 -0.17185 -0.26248 -0.10386 0.21849 0.052803 -0.25091 0.13974 0.078983 -0.01076 -0.27173 0.42384 -0.062297 0.26633 -0.11527 0.00063259 0.098502 0.0036212 -0.086403 -0.33892 -0.37574 -0.21211 0.2741 0.38849 0.063886 -0.17264 0.023269 -0.10219 0.024703 0.01713 0.29255 0.22284 0.059103 0.1666 -0.15771 0.054266 -0.34022 -0.20309 0.30804 -0.049716 0.058496 0.083346 -0.077699 -0.016442 0.21083 0.20976 -0.18304 0.12503 -0.0016317 -0.11725 0.13286 -0.26508 0.02502 0.054941 -0.14593 0.03815 0.39224 -0.1041 0.27191 -0.054354 0.12861 0.071341 0.14599 0.1073 0.17148 -0.50236 -0.46347 0.3009 0.019266 -0.041895 0.11324 -0.21518 0.041468 -0.23215 0.24713 0.43606 -0.092753 -0.091084 0.28355 0.25642 -0.21478 -0.16053 0.19359 -0.067514 0.12206 0.27873 -0.085637 -0.13601 -0.07163 0.24714 -0.038032 0.20857 0.43131 0.18852 -0.40903 -0.055738 -0.30105 0.29404 0.08756 -0.28139 0.045976 -0.15102 -0.1968 -0.20556 -0.40358 -0.51515 -0.36738 0.023567 0.079763 -0.19481 0.15036 0.76669 -0.18173 -0.10809 0.3263 0.28987 0.20911 -0.35352 -0.2496 0.055502 -0.23852 0.29206 -0.16531 0.053989 0.070266 0.068332 0.43577 -0.17971 -0.19938 -0.059191 0.14264 0.061678 -0.29272 -0.27678 0.099469 -0.10885 0.21992 -0.3286 -0.006275 0.39612 0.3586 0.15613 0.084462 -0.045997 -0.27221 0.0097795 0.11516 0.27172 -0.22654 -0.47421 0.035078 -0.023461 -0.23069 -0.058041 -0.18329 -0.13075 -0.12636 
embedded -0.81915 0.17572 -0.15996 0.39836 0.35611 0.22423 0.36653 0.39011 0.59196 0.49147 -0.22774 0.3724 0.40347 0.15443 -0.5507 0.31784 0.35895 0.13212 0.18701 -0.74273 -0.21541 0.45617 1.1435 -0.70435 0.32712 -0.48402 0.29117 -0.076522 -0.067208 0.72598 -0.6007 -0.21938 -0.59096 -0.51016 -0.95383 -0.26507 0.32099 -0.82101 0.025826 -0.91109 1.0539 0.13155 0.10025 -0.24377 0.12796 0.2881 -0.30661 -0.38832 -0.2893 0.22303 0.006505 0.49212 -0.282 0.40932 -0.169 -0.71962 -0.20337 -0.25993 -0.076286 0.58353 -0.58727 0.48321 0.81857 0.26824 -0.59105 -0.2538 -0.86635 0.36166 0.60472 0.37332 -0.72042 -0.70442 -0.025189 0.3727 0.051389 0.021815 0.60396 0.40226 -0.3976 0.12142 -0.42374 0.19084 0.70207 -0.96764 -0.15934 -0.32579 0.31771 0.030911 0.10722 -0.042311 0.87707 0.15699 0.206 -0.62515 0.37974 -0.61323 0.48831 0.50503 -0.37046 -0.2634 0.070358 0.10464 0.80236 -0.47234 0.27072 0.3253 -0.4375 0.27841 -0.11189 -0.14589 0.12468 -0.11839 -0.44164 -0.2428 -0.54927 -0.17724 0.61097 0.5805 -0.58076 -0.13871 -0.22517 0.53185 -0.17025 0.67307 -0.50645 -0.38625 -0.96416 0.2789 0.022852 -1.0637 -0.48942 -0.096663 0.72691 -0.39076 -0.021976 -0.12346 -0.3083 0.63887 -0.48386 -0.27717 -0.34981 0.73542 -0.93852 0.29601 0.38199 0.46839 0.28984 -0.39506 -0.1316 0.4862 -0.29588 -0.099345 0.099341 0.54367 -0.85615 0.1151 -0.57153 0.24469 0.064316 -0.19444 -0.041128 0.15043 0.68959 0.7851 0.39192 -0.51795 -0.77528 -0.21732 0.1806 -0.11601 0.21827 0.093958 0.078686 -0.61044 -0.38448 -0.18492 -0.38543 0.29506 -0.033616 0.64287 0.35743 -0.6027 0.14186 -0.0067638 -0.078646 0.17161 0.02296 -0.46096 -0.42734 0.43628 -0.11491 0.063233 0.25997 -0.22942 0.57004 0.0073688 -0.073387 0.20731 -0.13707 -0.8024 0.33195 -0.57209 0.086561 -0.24358 -0.045871 -0.33535 -0.30558 -0.40028 0.93746 0.94422 -0.69713 -0.087891 -0.008858 -0.29841 0.27391 -0.02605 0.43165 -0.4716 -0.80425 0.17644 0.26116 -0.56875 -0.54026 0.37227 0.25761 -0.31407 0.23038 -0.36645 -0.57915 0.18996 0.28411 0.25517 -0.44931 0.085063 -0.40772 -0.82198 -0.44947 0.81013 0.16396 0.58376 -0.58927 -0.078341 0.50717 -0.0787 0.332 0.33214 0.47891 0.75597 0.92993 0.73087 -0.08596 -0.089066 0.30574 -0.28654 -1.3847 0.42062 0.17045 -0.66355 -0.60301 -0.38096 0.75168 0.53191 0.048626 0.53791 -0.55781 0.32024 -0.17481 -0.18101 -0.0815 -0.80641 0.40878 0.37206 0.17237 -0.42228 -0.23369 0.53596 0.58405 -0.21128 0.33892 -0.43814 0.69452 -0.085309 -0.79808 -0.61168 -0.25574 -0.25323 0.073404 0.5998 0.10257 -0.26347 -0.57745 0.34902 0.8639 -0.085744 0.057518 0.338 0.032065 0.39539 0.28297 0.33027 
networks -0.26855 0.049574 -0.04597 0.14949 0.11973 0.092078 0.12567 0.10417 0.18196 0.16697 -0.078217 0.13016 0.1449 0.052534 -0.17817 0.099414 0.1212 0.047227 0.069465 -0.23598 -0.060357 0.16156 0.3579 -0.23716 0.11156 -0.15418 0.10104 -0.031493 -0.027553 0.24214 -0.19533 -0.068592 -0.19066 -0.17165 -0.30407 -0.076301 0.10301 -0.27149 0.016879 -0.3008 0.34705 0.07253 0.04418 -0.067735 0.035349 0.086879 -0.089664 -0.13902 -0.094013 0.065178 -0.0088573 0.14279 -0.097714 0.1236 -0.042371 -0.23746 -0.047556 -0.076498 -0.013608 0.19762 -0.21058 0.16804 0.25121 0.083617 -0.20593 -0.079675 -0.28229 0.12035 0.20683 0.13188 -0.23608 -0.21245 -0.012397 0.10403 0.02331 -0.016543 0.20127 0.1384 -0.1107 0.036509 -0.14619 0.090784 0.22587 -0.31954 -0.049981 -0.12461 0.086833 0.020097 0.027193 -0.027694 0.27963 0.057366 0.087946 -0.21571 0.11316 -0.21385 0.16804 0.15381 -0.10868 -0.10158 0.0093263 0.045444 0.25586 -0.15922 0.10631 0.11761 -0.14549 0.086683 -0.043486 -0.044067 0.056181 -0.054888 -0.14425 -0.072687 -0.1725 -0.082335 0.20248 0.20122 -0.18558 -0.028457 -0.083882 0.16838 -0.060216 0.22439 -0.17429 -0.14311 -0.30497 0.074408 -0.01467 -0.33466 -0.16598 -0.034118 0.23105 -0.14217 -0.011563 -0.042539 -0.10886 0.18996 -0.12941 -0.074608 -0.12617 0.25104 -0.29145 0.088359 0.12988 0.14575 0.11035 -0.12057 -0.046929 0.15949 -0.10063 -0.017296 0.04956 0.1776 -0.28567 0.035033 -0.19304 0.087058 0.030328 -0.060749 -0.02793 0.044634 0.23039 0.26933 0.1216 -0.16718 -0.25734 -0.089502 0.030144 -0.052844 0.080796 0.056571 0.051474 -0.20784 -0.11505 -0.075682 -0.14281 0.095352 -0.00013085 0.21295 0.11159 -0.19129 0.057042 0.022798 -0.011018 0.055592 0.0072008 -0.15549 -0.14512 0.15752 -0.0061791 0.033163 0.096872 -0.074471 0.1959 0.014374 -0.013024 0.045651 -0.050964 -0.27393 0.13271 -0.19286 0.026423 -0.078378 0.0096718 -0.11682 -0.11036 -0.14408 0.29775 0.31492 -0.25012 -0.04206 -0.022051 -0.11687 0.063297 0.0023168 0.13825 -0.1496 -0.24982 0.053055 0.1035 -0.18377 -0.1861 0.111 0.078087 -0.089166 0.099615 -0.14136 -0.19204 0.062615 0.10149 0.10292 -0.13915 0.032141 -0.12878 -0.26214 -0.16423 0.26918 0.059825 0.18407 -0.19128 -0.01116 0.15871 -0.025296 0.11469 0.096044 0.16404 0.24147 0.28971 0.24256 -0.030916 -0.013125 0.087496 -0.089889 -0.42698 0.14684 0.041593 -0.22017 -0.19938 -0.11686 0.2598 0.18418 0.038507 0.18673 -0.18348 0.09894 -0.066248 -0.066889 -0.023261 -0.25555 0.14279 0.1182 0.060836 -0.16527 -0.093886 0.16738 0.19744 -0.071546 0.13761 -0.14237 0.23571 -0.051093 -0.27384 -0.17841 -0.073829 -0.10126 0.018985 0.20586 0.059124 -0.092352 -0.2035 0.098272 0.26367 -0.026783 0.021288 0.088279 -0.004967 0.14097 0.093605 0.11576 
security -0.1943 0.013608 -0.010111 0.14223 0.084293 0.081542 0.099185 0.049869 0.11367 0.11292 -0.056974 0.10694 0.11428 0.027594 -0.1299 0.072202 0.096154 0.032437 0.070492 -0.15763 -0.026376 0.12627 0.24758 -0.17597 0.079546 -0.097417 0.073202 -0.021054 -0.014473 0.17345 -0.13567 -0.040711 -0.12335 -0.12906 -0.20351 -0.05029 0.06599 -0.18887 0.023445 -0.21996 0.24607 0.072046 0.041002 -0.036514 0.025943 0.056944 -0.04572 -0.12173 -0.059908 0.037042 -0.013437 0.079231 -0.065023 0.066746 -0.018758 -0.1684 -0.015562 -0.049125 -0.012086 0.15051 -0.17651 0.1358 0.16393 0.057237 -0.16785 -0.051537 -0.19482 0.070125 0.15309 0.10094 -0.16131 -0.1459 -0.0023046 0.060292 0.031982 -0.03519 0.14542 0.097742 -0.06216 0.028366 -0.11011 0.087407 0.1499 -0.22637 -0.025836 -0.10576 0.044753 0.018319 0.017464 -0.025423 0.18513 0.03616 0.07226 -0.15579 0.077321 -0.15969 0.12354 0.086813 -0.053435 -0.093903 -0.016819 0.045113 0.17405 -0.11637 0.087872 0.084207 -0.10866 0.058643 -0.034966 -0.027764 0.065443 -0.049574 -0.10038 -0.046254 -0.11561 -0.079375 0.14928 0.15716 -0.1146 0.0010026 -0.065761 0.10541 -0.055548 0.16315 -0.12683 -0.11896 -0.20414 0.038133 -0.033499 -0.22215 -0.12317 -0.020299 0.16067 -0.11254 -0.0048196 -0.031664 -0.070969 0.11325 -0.065171 -0.027759 -0.090274 0.1814 -0.18444 0.04686 0.092407 0.090868 0.08665 -0.07334 -0.035582 0.11428 -0.078054 0.0087353 0.050876 0.1206 -0.20009 0.018189 -0.13462 0.07092 0.022349 -0.046094 -0.035694 0.014631 0.17684 0.21047 0.073915 -0.11774 -0.19383 -0.082889 -0.0082798 -0.04423 0.067732 0.066216 0.061837 -0.15548 -0.066584 -0.071275 -0.12185 0.067466 -0.0030379 0.15239 0.081049 -0.13222 0.060397 0.037337 -0.0051199 0.034992 0.011165 -0.10839 -0.10486 0.12761 0.020807 0.039134 0.0715 -0.050335 0.14836 0.023769 0.0094281 0.0083197 -0.035464 -0.21028 0.11801 -0.14519 0.015242 -0.053323 0.033564 -0.082289 -0.085746 -0.10852 0.19627 0.23761 -0.19201 -0.044222 -0.037747 -0.097089 0.02569 0.0030679 0.093546 -0.11017 -0.16167 0.032372 0.092002 -0.1301 -0.13915 0.070088 0.053206 -0.050717 0.090859 -0.11395 -0.14138 0.043003 0.081109 0.088289 -0.089795 0.026232 -0.079971 -0.1799 -0.13715 0.1868 0.038812 0.11886 -0.12563 0.0037482 0.095159 -0.019287 0.090306 0.052479 0.12846 0.15808 0.18819 0.17068 -0.02399 0.013971 0.037732 -0.057839 -0.27999 0.11404 0.012586 -0.15666 -0.14582 -0.074921 0.19226 0.13361 0.045178 0.14934 -0.12295 0.065627 -0.053676 -0.060051 -0.018132 -0.16412 0.11441 0.075978 0.041003 -0.1424 -0.073673 0.10676 0.13561 -0.048634 0.11655 -0.086494 0.16354 -0.066814 -0.20522 -0.10602 -0.044937 -0.082179 0.0097908 0.14715 0.062767 -0.071483 -0.15764 0.054405 0.16648 -0.019029 0.012837 0.044337 -0.024692 0.11154 0.063217 0.092356 
compiler -0.089575 -0.014823 0.011773 0.099168 0.045997 0.060143 0.057903 -0.004197 0.034353 0.04821 -0.026082 0.064949 0.06544 0.0074326 -0.060074 0.034405 0.059876 0.018686 0.04966 -0.064344 -0.0013252 0.066611 0.10663 -0.085676 0.04117 -0.036561 0.03478 -0.01055 -0.0033349 0.076646 -0.059673 -0.016711 -0.048037 -0.063114 -0.080688 -0.011371 0.026532 -0.085886 0.023482 -0.10373 0.11758 0.05654 0.034038 -0.0048238 0.0078165 0.016468 -0.0044689 -0.071977 -0.024751 0.0055241 -0.0086111 0.0098385 -0.021146 0.017359 0.0021559 -0.078717 0.016354 -0.022662 -0.0069025 0.081145 -0.1024 0.071905 0.057656 0.018942 -0.096619 -0.026494 -0.084556 0.024742 0.079217 0.050965 -0.068742 -0.064706 0.0027887 0.011166 0.031962 -0.041102 0.065475 0.047065 -0.013567 0.015218 -0.050647 0.069226 0.051818 -0.10432 -0.0019127 -0.068067 0.001936 0.018049 0.0084345 -0.017189 0.078387 0.013497 0.043925 -0.073796 0.0283 -0.081562 0.067608 0.018654 -0.0011189 -0.05895 -0.026848 0.024716 0.07077 -0.053637 0.052087 0.04014 -0.054461 0.023996 -0.016582 -0.0058846 0.057279 -0.034715 -0.041716 -0.019228 -0.045011 -0.055567 0.076233 0.089051 -0.034188 0.02394 -0.034224 0.03761 -0.040686 0.078472 -0.059326 -0.067541 -0.07981 0.0053194 -0.037274 -0.088603 -0.067205 -0.0065863 0.076119 -0.060404 0.00039264 -0.01534 -0.027617 0.02556 0.0028154 0.0070001 -0.045902 0.090291 -0.066158 0.0039998 0.039734 0.036696 0.047547 -0.028198 -0.020004 0.060742 -0.041101 0.022217 0.038127 0.053001 -0.096475 0.0011368 -0.064253 0.040616 0.0027406 -0.021965 -0.030516 -0.0063516 0.09328 0.11474 0.02638 -0.054267 -0.093428 -0.053466 -0.02528 -0.034522 0.047306 0.058308 0.052114 -0.077927 -0.015844 -0.046934 -0.076753 0.033299 -0.0071676 0.073076 0.033208 -0.05254 0.044751 0.037699 0.0041883 0.011918 0.011518 -0.050248 -0.049138 0.072206 0.037732 0.03534 0.040797 -0.023592 0.076066 0.02391 0.023892 -0.027585 -0.013076 -0.10691 0.076514 -0.07552 0.003805 -0.022421 0.040358 -0.038719 -0.043286 -0.055884 0.076034 0.12009 -0.10556 -0.036381 -0.040139 -0.060807 -0.0041666 0.0080081 0.041795 -0.051605 -0.065751 0.010625 0.058488 -0.054789 -0.074024 0.021427 0.023551 -0.012576 0.067629 -0.061941 -0.06559 0.02025 0.051463 0.04963 -0.031888 0.011936 -0.020347 -0.080646 -0.083544 0.083798 0.015643 0.038106 -0.047811 0.013658 0.03105 -0.016079 0.047675 0.0082815 0.063261 0.064811 0.072908 0.071939 -0.011773 0.025578 -0.00081234 -0.019082 -0.10191 0.060302 -0.016325 -0.074101 -0.072519 -0.030342 0.10084 0.065873 0.039982 0.078718 -0.055215 0.020763 -0.035446 -0.036942 -0.010149 -0.056198 0.062796 0.03018 0.015413 -0.092792 -0.033915 0.036393 0.057604 -0.020591 0.068855 -0.026502 0.077615 -0.061671 -0.10678 -0.023167 -0.01372 -0.052895 0.0043765 0.069309 0.047275 -0.039497 -0.091322 0.011456 0.053069 -0.011603 0.0051774 0.0067609 -0.027024 0.060107 0.023492 0.044422 
dean 0.47367 0.21886 -0.15281 -0.76579 -0.26258 -0.56298 -0.38806 0.44826 0.052971 -0.24216 0.13726 -0.48611 -0.44 0.06169 0.27149 -0.13663 -0.39315 -0.08898 -0.43362 0.16481 -0.19519 -0.46276 -0.31388 0.43973 -0.21822 0.016291 -0.16526 0.052088 -0.0015664 -0.36293 0.25648 -0.017259 0.065877 0.38451 0.21443 -0.062992 -0.071172 0.33554 -0.26949 0.52218 -0.51868 -0.58539 -0.31581 -0.16157 -0.014306 0.028605 -0.2233 0.58359 0.013753 0.10832 0.12439 0.31446 0.042324 0.15973 -0.14969 0.3914 -0.35799 0.061699 0.0092074 -0.48107 0.78343 -0.50228 -0.0044873 0.0050779 0.72215 0.089185 0.3442 0.02165 -0.44738 -0.32911 0.25498 0.19015 -0.055145 0.19843 -0.34459 0.575 -0.27824 -0.2248 -0.1709 -0.10919 0.29667 -0.68876 -0.063295 0.50078 -0.11713 0.54032 0.20999 -0.18152 -0.024351 0.20314 -0.1909 -0.061397 -0.31701 0.3949 -0.05901 0.47538 -0.39125 0.21284 -0.32137 0.54441 0.40595 -0.23884 -0.23055 0.2446 -0.44778 -0.2399 0.27268 -0.072523 0.15037 -0.076288 -0.60652 0.32693 0.15891 0.033127 0.085881 0.5315 -0.42927 -0.61472 -0.092483 -0.387 0.23433 0.032852 0.40277 -0.36045 0.27693 0.5191 0.14857 0.17069 0.49436 0.21724 0.41826 -0.033559 -0.28849 0.44874 -0.057771 0.050655 0.06374 0.19299 -0.4173 -0.34032 0.25008 -0.49278 0.056998 0.19628 -0.16294 -0.019554 -0.34511 -0.020729 0.13095 -0.31752 0.26363 -0.40374 -0.41775 -0.1783 0.44163 0.12774 0.27339 -0.25641 -0.0016435 0.096072 0.37244 0.19543 -0.56651 -0.7896 0.030411 0.21478 0.52183 0.50838 0.45938 0.29557 -0.39974 -0.62194 -0.55608 0.48031 -0.13127 0.45724 0.61844 -0.12929 0.055686 -0.33372 -0.14676 0.17308 -0.42675 -0.45389 -0.11705 0.044589 -0.093412 0.18819 0.22287 -0.5286 -0.52615 -0.3442 -0.29139 0.095233 -0.46577 -0.2944 -0.39568 0.47899 0.025841 0.68401 -0.61704 0.4295 0.050118 0.058864 -0.53558 0.21532 0.27778 0.35618 -0.1665 -0.67003 0.75316 0.38901 0.49285 0.50575 0.291 -0.099295 -0.16711 0.24929 0.10296 0.0036538 -0.48098 0.20324 0.44827 0.042669 -0.088628 -0.11242 -0.607 0.47003 0.30446 -0.077972 -0.41071 -0.4209 0.019489 -0.07059 -0.092177 0.29289 0.68183 -0.35868 -0.056889 0.051451 0.090129 -0.20518 0.038477 0.095772 -0.28989 0.13143 -0.36572 -0.13695 -0.12377 -0.27971 0.052877 -0.40799 0.27119 -0.036076 0.13862 -0.42258 0.32591 0.33739 0.35428 0.024728 -0.56898 -0.31635 -0.38427 -0.50992 0.19329 0.029254 0.24362 0.30885 0.10184 0.033932 -0.39846 -0.029355 -0.045243 0.74076 0.22995 -0.03216 -0.24424 0.093439 -0.54584 -0.050301 -0.33909 0.66532 0.66726 -0.20555 -0.065295 0.38517 0.018875 -0.32405 -0.49387 0.24553 0.6064 0.16949 0.041019 0.040361 0.029293 0.21668 0.33711 -0.39235 -0.046799 -0.27174 
senior 0.055099 0.030244 -0.016887 -0.11621 -0.033861 -0.1109 -0.058064 0.12707 0.055071 -0.020807 0.015341 -0.075599 -0.059663 0.038093 0.020079 -0.013744 -0.075069 -0.0066302 -0.088545 -0.02208 -0.056661 -0.057753 -0.0048395 0.047825 -0.02436 -0.03661 -0.014884 -0.0030332 -0.017583 -0.020273 0.014388 -0.018442 -0.036028 0.05684 -0.017749 -0.026496 0.0074102 0.015336 -0.070273 0.064131 -0.042114 -0.092278 -0.057638 -0.036964 -0.0090163 0.0095403 -0.074507 0.10028 -0.034435 0.039178 -0.0033387 0.11496 -0.038443 0.061089 -0.037463 0.041877 -0.079573 0.017975 0.026688 -0.077076 0.13346 -0.076286 0.051302 0.025467 0.13259 0.02434 0.034506 0.04883 -0.05819 -0.042628 -0.00102 0.034274 -0.040198 0.05744 -0.077167 0.11778 -0.007125 -0.00033644 -0.046521 -0.036345 0.019956 -0.1213 0.052314 0.055444 -0.044587 0.072749 0.059672 -0.036655 -0.019604 0.019695 0.012484 0.00411 -0.01242 0.03427 -0.0047473 0.045771 -0.057147 0.10022 -0.095603 0.1069 0.10541 -0.021422 0.0010216 0.012701 -0.060279 -0.0038391 0.018029 -0.0057827 0.02364 -0.034702 -0.13755 0.039699 -0.00093738 0.016809 -0.011897 0.087076 -0.067791 -0.10322 -0.073631 -0.082655 0.027754 0.064679 0.10771 -0.036261 0.014863 0.074489 -0.024402 0.043773 0.09777 0.0022506 0.072214 -0.027838 -0.03796 0.056308 -0.055375 -0.005095 -0.036622 0.073263 -0.10121 -0.093966 -0.00023711 -0.051093 -0.026985 0.071444 0.01538 0.0091644 -0.02373 -0.027637 0.011357 -0.054302 0.041785 -0.098648 -0.068919 0.0018713 0.039226 0.051529 0.0010621 -0.039827 0.048715 0.0091998 0.089683 0.060842 -0.089098 -0.12946 0.033795 0.023118 0.068777 0.080784 0.071317 0.042147 -0.091539 -0.10206 -0.10105 0.06722 -0.046032 0.079805 0.11614 -0.018313 0.051497 -0.048584 -0.027587 -0.0035765 -0.085579 -0.076284 0.0018276 0.041519 -0.033562 -0.015513 0.016544 -0.071424 -0.088991 -0.066993 -0.042809 0.02167 -0.060152 -0.057936 -0.10717 0.11775 -0.037131 0.10285 -0.077722 0.046432 0.012115 -0.0017364 -0.11324 0.0014498 0.0051002 0.024825 0.016172 -0.086557 0.10166 0.082821 0.091212 0.081933 0.037957 -0.0027517 -0.025932 0.0342 -0.015303 0.011423 -0.071934 0.0040184 0.057014 0.020808 -0.037183 -0.029238 -0.10616 0.038434 0.016775 0.0019896 -0.080605 -0.037359 -0.020185 -0.0013513 -0.07103 0.023382 0.11681 -0.022348 0.026908 0.0711 -0.035309 -0.01685 0.036166 0.029485 -0.036815 0.043374 -0.022826 0.0098887 0.010337 -0.004032 -0.015207 -0.092919 0.06872 -0.032623 -0.026303 -0.049729 0.090372 0.01887 0.033357 -0.012278 -0.061434 -0.019281 -0.024311 -0.060859 0.0089939 0.038443 0.017075 0.053457 0.048286 -0.045168 -0.050767 0.012253 0.037618 0.10578 -0.010906 0.017698 0.0035163 -0.0017338 -0.056459 -0.057539 -0.002914 0.13337 0.10655 -0.075283 -0.019436 0.042687 0.0032678 -0.0052668 -0.070642 0.029732 0.095807 0.030792 0.053447 -0.002231 0.023625 0.033249 0.05535 -0.053162 0.029865 -0.0057059 
discrete -0.058582 0.030719 -0.037324 0.0099815 0.036022 0.038984 0.037081 -0.011699 0.04578 0.05548 -0.016396 0.033869 0.05255 0.022683 -0.02703 0.0082711 0.016116 0.018673 0.02596 -0.050415 -0.0011078 0.054717 0.044507 -0.050016 0.030323 -0.030824 0.020357 -0.011268 -0.013071 0.063428 -0.040893 -0.011703 -0.040579 -0.037932 -0.06354 -0.0062688 0.019201 -0.059671 0.0043835 -0.055524 0.070663 0.052251 0.022871 0.0084762 -0.0046174 0.0006317 -0.0074983 -0.043466 -0.031243 0.0038651 -0.025612 0.021487 -0.042178 0.012121 0.002891 -0.05309 0.014233 -0.0010112 0.015128 0.046943 -0.064629 0.045495 0.040794 0.015919 -0.049978 -0.0034602 -0.053458 0.031447 0.049786 0.038819 -0.051985 -0.021584 -0.01729 0.0058369 0.015289 -0.032066 0.052333 0.04891 -0.0048645 -0.0030505 -0.048843 0.054161 0.053083 -0.06482 -0.012827 -0.05744 0.0046333 0.014431 -0.010563 -0.02277 0.054106 0.015268 0.054604 -0.054698 0.014677 -0.061802 0.04497 0.029897 -0.010015 -0.030924 -0.0034293 0.030507 0.053487 -0.046798 0.047424 0.040849 -0.044672 0.01651 -0.0096048 -0.0079895 0.023538 -0.032987 -0.034474 -0.0028023 -0.028618 -0.043965 0.036928 0.050076 -0.037866 0.015193 -0.0281 0.039231 -0.0064589 0.048399 -0.046864 -0.049365 -0.052454 -0.0019923 -0.026619 -0.053037 -0.037364 -0.010858 0.037542 -0.048226 -0.025454 -0.011397 -0.039451 0.017921 0.0068574 0.0019372 -0.046767 0.060508 -0.036095 0.015592 0.042381 0.013486 0.044721 -0.017555 -0.016564 0.032053 -0.026088 0.0080753 0.031749 0.036707 -0.066564 0.0065288 -0.051971 0.024396 0.028943 -0.014298 -0.01375 0.003748 0.055459 0.071125 0.021546 -0.034196 -0.058914 -0.037648 -0.033606 -0.025544 0.019872 0.047482 0.033882 -0.053969 -0.0099444 -0.03619 -0.041044 0.017487 0.018502 0.037935 0.017241 -0.043261 0.02223 0.033309 0.017041 0.018101 -0.0034887 -0.045495 -0.036472 0.052895 0.031288 0.022314 0.031978 -0.011916 0.054359 0.015928 0.0071818 -0.0057726 -0.027606 -0.065501 0.058984 -0.053207 0.002243 -0.017682 0.020603 -0.037108 -0.043471 -0.049431 0.052615 0.078039 -0.076699 -0.017099 -0.02733 -0.044974 -0.018818 0.015347 0.024756 -0.033474 -0.041376 0.009851 0.040065 -0.044373 -0.049401 0.011598 0.0047133 -0.007217 0.042267 -0.059519 -0.049359 0.015131 0.02424 0.049242 -0.024283 0.0096 -0.02954 -0.052106 -0.052498 0.061841 0.024445 0.041628 -0.042967 0.015596 0.02296 -0.0045187 0.030861 0.0077738 0.047823 0.043456 0.042625 0.056112 -0.014251 0.0095818 0.0012921 -0.014129 -0.06245 0.048037 0.001001 -0.052348 -0.047201 -0.017786 0.068521 0.045602 0.042113 0.0571 -0.036052 0.022115 -0.02684 -0.023828 0.0045873 -0.046785 0.042699 0.02217 0.024604 -0.059786 -0.040531 0.023408 0.048383 -0.016966 0.057142 -0.027822 0.062367 -0.031908 -0.065207 -0.023378 -0.0070543 -0.034549 -0.00053263 0.054384 0.038677 -0.028826 -0.051737 0.0022395 0.042884 -0.0084943 0.0082101 -0.0057088 -0.019347 0.038035 0.024347 0.03783 
